digraph Tree {
node [shape=box] ;
0 [label="X[19] <= 0.837\ngini = 0.459\nsamples = 117505\nvalue = [85536, 9169, 2772, 2759, 2754, 2762, 2864, 3013, 3090\n2786]"] ;
1 [label="X[0] <= -3.793\ngini = 0.289\nsamples = 87613\nvalue = [73650, 1114, 7, 2759, 214, 2537, 2864, 1378, 3090, 0]"] ;
0 -> 1 [labeldistance=2.5, labelangle=45, headlabel="True"] ;
2 [label="X[2] <= -5.535\ngini = 0.204\nsamples = 79878\nvalue = [71151, 585, 7, 0, 214, 2537, 1821, 1378, 2185, 0]"] ;
1 -> 2 ;
3 [label="X[19] <= -0.085\ngini = 0.591\nsamples = 3308\nvalue = [1851, 67, 0, 0, 0, 0, 498, 0, 892, 0]"] ;
2 -> 3 ;
4 [label="X[8] <= -0.527\ngini = 0.661\nsamples = 2317\nvalue = [897, 47, 0, 0, 0, 0, 498, 0, 875, 0]"] ;
3 -> 4 ;
5 [label="X[9] <= -0.632\ngini = 0.457\nsamples = 766\nvalue = [266, 2, 0, 0, 0, 0, 498, 0, 0, 0]"] ;
4 -> 5 ;
6 [label="X[13] <= 2.456\ngini = 0.303\nsamples = 612\nvalue = [114, 0, 0, 0, 0, 0, 498, 0, 0, 0]"] ;
5 -> 6 ;
7 [label="X[11] <= 15.05\ngini = 0.252\nsamples = 560\nvalue = [83, 0, 0, 0, 0, 0, 477, 0, 0, 0]"] ;
6 -> 7 ;
8 [label="X[11] <= -17.416\ngini = 0.228\nsamples = 549\nvalue = [72, 0, 0, 0, 0, 0, 477, 0, 0, 0]"] ;
7 -> 8 ;
9 [label="gini = 0.0\nsamples = 10\nvalue = [10, 0, 0, 0, 0, 0, 0, 0, 0, 0]"] ;
8 -> 9 ;
10 [label="X[20] <= 23.319\ngini = 0.204\nsamples = 539\nvalue = [62, 0, 0, 0, 0, 0, 477, 0, 0, 0]"] ;
8 -> 10 ;
11 [label="X[10] <= -0.597\ngini = 0.183\nsamples = 531\nvalue = [54, 0, 0, 0, 0, 0, 477, 0, 0, 0]"] ;
10 -> 11 ;
12 [label="X[14] <= -3.025\ngini = 0.388\nsamples = 110\nvalue = [29, 0, 0, 0, 0, 0, 81, 0, 0, 0]"] ;
11 -> 12 ;
13 [label="X[18] <= -0.797\ngini = 0.275\nsamples = 97\nvalue = [16, 0, 0, 0, 0, 0, 81, 0, 0, 0]"] ;
12 -> 13 ;
14 [label="X[22] <= 12.417\ngini = 0.167\nsamples = 87\nvalue = [8, 0, 0, 0, 0, 0, 79, 0, 0, 0]"] ;
13 -> 14 ;
15 [label="X[14] <= -3.211\ngini = 0.079\nsamples = 73\nvalue = [3, 0, 0, 0, 0, 0, 70, 0, 0, 0]"] ;
14 -> 15 ;
16 [label="X[5] <= -0.809\ngini = 0.054\nsamples = 72\nvalue = [2, 0, 0, 0, 0, 0, 70, 0, 0, 0]"] ;
15 -> 16 ;
17 [label="X[9] <= -0.74\ngini = 0.5\nsamples = 2\nvalue = [1, 0, 0, 0, 0, 0, 1, 0, 0, 0]"] ;
16 -> 17 ;
18 [label="gini = 0.0\nsamples = 1\nvalue = [1, 0, 0, 0, 0, 0, 0, 0, 0, 0]"] ;
17 -> 18 ;
19 [label="gini = 0.0\nsamples = 1\nvalue = [0, 0, 0, 0, 0, 0, 1, 0, 0, 0]"] ;
17 -> 19 ;
20 [label="X[22] <= 9.001\ngini = 0.028\nsamples = 70\nvalue = [1, 0, 0, 0, 0, 0, 69, 0, 0, 0]"] ;
16 -> 20 ;
21 [label="gini = 0.0\nsamples = 62\nvalue = [0, 0, 0, 0, 0, 0, 62, 0, 0, 0]"] ;
20 -> 21 ;
22 [label="X[18] <= -0.813\ngini = 0.219\nsamples = 8\nvalue = [1, 0, 0, 0, 0, 0, 7, 0, 0, 0]"] ;
20 -> 22 ;
23 [label="gini = 0.0\nsamples = 7\nvalue = [0, 0, 0, 0, 0, 0, 7, 0, 0, 0]"] ;
22 -> 23 ;
24 [label="gini = 0.0\nsamples = 1\nvalue = [1, 0, 0, 0, 0, 0, 0, 0, 0, 0]"] ;
22 -> 24 ;
25 [label="gini = 0.0\nsamples = 1\nvalue = [1, 0, 0, 0, 0, 0, 0, 0, 0, 0]"] ;
15 -> 25 ;
26 [label="X[10] <= -0.647\ngini = 0.459\nsamples = 14\nvalue = [5, 0, 0, 0, 0, 0, 9, 0, 0, 0]"] ;
14 -> 26 ;
27 [label="gini = 0.0\nsamples = 5\nvalue = [5, 0, 0, 0, 0, 0, 0, 0, 0, 0]"] ;
26 -> 27 ;
28 [label="gini = 0.0\nsamples = 9\nvalue = [0, 0, 0, 0, 0, 0, 9, 0, 0, 0]"] ;
26 -> 28 ;
29 [label="X[12] <= -9.961\ngini = 0.32\nsamples = 10\nvalue = [8, 0, 0, 0, 0, 0, 2, 0, 0, 0]"] ;
13 -> 29 ;
30 [label="gini = 0.0\nsamples = 2\nvalue = [0, 0, 0, 0, 0, 0, 2, 0, 0, 0]"] ;
29 -> 30 ;
31 [label="gini = 0.0\nsamples = 8\nvalue = [8, 0, 0, 0, 0, 0, 0, 0, 0, 0]"] ;
29 -> 31 ;
32 [label="gini = 0.0\nsamples = 13\nvalue = [13, 0, 0, 0, 0, 0, 0, 0, 0, 0]"] ;
12 -> 32 ;
33 [label="X[18] <= -1.049\ngini = 0.112\nsamples = 421\nvalue = [25, 0, 0, 0, 0, 0, 396, 0, 0, 0]"] ;
11 -> 33 ;
34 [label="X[11] <= -3.616\ngini = 0.278\nsamples = 6\nvalue = [5, 0, 0, 0, 0, 0, 1, 0, 0, 0]"] ;
33 -> 34 ;
35 [label="gini = 0.0\nsamples = 1\nvalue = [0, 0, 0, 0, 0, 0, 1, 0, 0, 0]"] ;
34 -> 35 ;
36 [label="gini = 0.0\nsamples = 5\nvalue = [5, 0, 0, 0, 0, 0, 0, 0, 0, 0]"] ;
34 -> 36 ;
37 [label="X[21] <= -68.69\ngini = 0.092\nsamples = 415\nvalue = [20, 0, 0, 0, 0, 0, 395, 0, 0, 0]"] ;
33 -> 37 ;
38 [label="gini = 0.0\nsamples = 4\nvalue = [4, 0, 0, 0, 0, 0, 0, 0, 0, 0]"] ;
37 -> 38 ;
39 [label="X[8] <= -0.603\ngini = 0.075\nsamples = 411\nvalue = [16, 0, 0, 0, 0, 0, 395, 0, 0, 0]"] ;
37 -> 39 ;
40 [label="X[22] <= 18.283\ngini = 0.375\nsamples = 4\nvalue = [3, 0, 0, 0, 0, 0, 1, 0, 0, 0]"] ;
39 -> 40 ;
41 [label="gini = 0.0\nsamples = 3\nvalue = [3, 0, 0, 0, 0, 0, 0, 0, 0, 0]"] ;
40 -> 41 ;
42 [label="gini = 0.0\nsamples = 1\nvalue = [0, 0, 0, 0, 0, 0, 1, 0, 0, 0]"] ;
40 -> 42 ;
43 [label="X[5] <= 1.388\ngini = 0.062\nsamples = 407\nvalue = [13, 0, 0, 0, 0, 0, 394, 0, 0, 0]"] ;
39 -> 43 ;
44 [label="X[12] <= -15.222\ngini = 0.057\nsamples = 406\nvalue = [12, 0, 0, 0, 0, 0, 394, 0, 0, 0]"] ;
43 -> 44 ;
45 [label="gini = 0.0\nsamples = 1\nvalue = [1, 0, 0, 0, 0, 0, 0, 0, 0, 0]"] ;
44 -> 45 ;
46 [label="X[1] <= 1.135\ngini = 0.053\nsamples = 405\nvalue = [11, 0, 0, 0, 0, 0, 394, 0, 0, 0]"] ;
44 -> 46 ;
47 [label="X[12] <= 15.96\ngini = 0.048\nsamples = 404\nvalue = [10, 0, 0, 0, 0, 0, 394, 0, 0, 0]"] ;
46 -> 47 ;
48 [label="X[20] <= 21.75\ngini = 0.039\nsamples = 398\nvalue = [8, 0, 0, 0, 0, 0, 390, 0, 0, 0]"] ;
47 -> 48 ;
49 [label="X[22] <= 27.873\ngini = 0.035\nsamples = 396\nvalue = [7, 0, 0, 0, 0, 0, 389, 0, 0, 0]"] ;
48 -> 49 ;
50 [label="X[17] <= -0.143\ngini = 0.021\nsamples = 374\nvalue = [4, 0, 0, 0, 0, 0, 370, 0, 0, 0]"] ;
49 -> 50 ;
51 [label="X[3] <= 0.228\ngini = 0.011\nsamples = 353\nvalue = [2, 0, 0, 0, 0, 0, 351, 0, 0, 0]"] ;
50 -> 51 ;
52 [label="gini = 0.0\nsamples = 287\nvalue = [0, 0, 0, 0, 0, 0, 287, 0, 0, 0]"] ;
51 -> 52 ;
53 [label="X[3] <= 0.232\ngini = 0.059\nsamples = 66\nvalue = [2, 0, 0, 0, 0, 0, 64, 0, 0, 0]"] ;
51 -> 53 ;
54 [label="X[13] <= 0.069\ngini = 0.444\nsamples = 3\nvalue = [1, 0, 0, 0, 0, 0, 2, 0, 0, 0]"] ;
53 -> 54 ;
55 [label="gini = 0.0\nsamples = 1\nvalue = [1, 0, 0, 0, 0, 0, 0, 0, 0, 0]"] ;
54 -> 55 ;
56 [label="gini = 0.0\nsamples = 2\nvalue = [0, 0, 0, 0, 0, 0, 2, 0, 0, 0]"] ;
54 -> 56 ;
57 [label="X[5] <= 0.62\ngini = 0.031\nsamples = 63\nvalue = [1, 0, 0, 0, 0, 0, 62, 0, 0, 0]"] ;
53 -> 57 ;
58 [label="gini = 0.0\nsamples = 54\nvalue = [0, 0, 0, 0, 0, 0, 54, 0, 0, 0]"] ;
57 -> 58 ;
59 [label="X[20] <= -7.109\ngini = 0.198\nsamples = 9\nvalue = [1, 0, 0, 0, 0, 0, 8, 0, 0, 0]"] ;
57 -> 59 ;
60 [label="gini = 0.0\nsamples = 8\nvalue = [0, 0, 0, 0, 0, 0, 8, 0, 0, 0]"] ;
59 -> 60 ;
61 [label="gini = 0.0\nsamples = 1\nvalue = [1, 0, 0, 0, 0, 0, 0, 0, 0, 0]"] ;
59 -> 61 ;
62 [label="X[21] <= -22.708\ngini = 0.172\nsamples = 21\nvalue = [2, 0, 0, 0, 0, 0, 19, 0, 0, 0]"] ;
50 -> 62 ;
63 [label="X[14] <= -1.829\ngini = 0.444\nsamples = 3\nvalue = [2, 0, 0, 0, 0, 0, 1, 0, 0, 0]"] ;
62 -> 63 ;
64 [label="gini = 0.0\nsamples = 2\nvalue = [2, 0, 0, 0, 0, 0, 0, 0, 0, 0]"] ;
63 -> 64 ;
65 [label="gini = 0.0\nsamples = 1\nvalue = [0, 0, 0, 0, 0, 0, 1, 0, 0, 0]"] ;
63 -> 65 ;
66 [label="gini = 0.0\nsamples = 18\nvalue = [0, 0, 0, 0, 0, 0, 18, 0, 0, 0]"] ;
62 -> 66 ;
67 [label="X[19] <= -0.353\ngini = 0.236\nsamples = 22\nvalue = [3, 0, 0, 0, 0, 0, 19, 0, 0, 0]"] ;
49 -> 67 ;
68 [label="gini = 0.0\nsamples = 19\nvalue = [0, 0, 0, 0, 0, 0, 19, 0, 0, 0]"] ;
67 -> 68 ;
69 [label="gini = 0.0\nsamples = 3\nvalue = [3, 0, 0, 0, 0, 0, 0, 0, 0, 0]"] ;
67 -> 69 ;
70 [label="X[16] <= 2.433\ngini = 0.5\nsamples = 2\nvalue = [1, 0, 0, 0, 0, 0, 1, 0, 0, 0]"] ;
48 -> 70 ;
71 [label="gini = 0.0\nsamples = 1\nvalue = [0, 0, 0, 0, 0, 0, 1, 0, 0, 0]"] ;
70 -> 71 ;
72 [label="gini = 0.0\nsamples = 1\nvalue = [1, 0, 0, 0, 0, 0, 0, 0, 0, 0]"] ;
70 -> 72 ;
73 [label="X[19] <= -0.322\ngini = 0.444\nsamples = 6\nvalue = [2, 0, 0, 0, 0, 0, 4, 0, 0, 0]"] ;
47 -> 73 ;
74 [label="gini = 0.0\nsamples = 4\nvalue = [0, 0, 0, 0, 0, 0, 4, 0, 0, 0]"] ;
73 -> 74 ;
75 [label="gini = 0.0\nsamples = 2\nvalue = [2, 0, 0, 0, 0, 0, 0, 0, 0, 0]"] ;
73 -> 75 ;
76 [label="gini = 0.0\nsamples = 1\nvalue = [1, 0, 0, 0, 0, 0, 0, 0, 0, 0]"] ;
46 -> 76 ;
77 [label="gini = 0.0\nsamples = 1\nvalue = [1, 0, 0, 0, 0, 0, 0, 0, 0, 0]"] ;
43 -> 77 ;
78 [label="gini = 0.0\nsamples = 8\nvalue = [8, 0, 0, 0, 0, 0, 0, 0, 0, 0]"] ;
10 -> 78 ;
79 [label="gini = 0.0\nsamples = 11\nvalue = [11, 0, 0, 0, 0, 0, 0, 0, 0, 0]"] ;
7 -> 79 ;
80 [label="X[19] <= -0.408\ngini = 0.482\nsamples = 52\nvalue = [31, 0, 0, 0, 0, 0, 21, 0, 0, 0]"] ;
6 -> 80 ;
81 [label="X[19] <= -0.439\ngini = 0.266\nsamples = 19\nvalue = [3, 0, 0, 0, 0, 0, 16, 0, 0, 0]"] ;
80 -> 81 ;
82 [label="X[1] <= -0.164\ngini = 0.375\nsamples = 4\nvalue = [3, 0, 0, 0, 0, 0, 1, 0, 0, 0]"] ;
81 -> 82 ;
83 [label="gini = 0.0\nsamples = 1\nvalue = [0, 0, 0, 0, 0, 0, 1, 0, 0, 0]"] ;
82 -> 83 ;
84 [label="gini = 0.0\nsamples = 3\nvalue = [3, 0, 0, 0, 0, 0, 0, 0, 0, 0]"] ;
82 -> 84 ;
85 [label="gini = 0.0\nsamples = 15\nvalue = [0, 0, 0, 0, 0, 0, 15, 0, 0, 0]"] ;
81 -> 85 ;
86 [label="X[9] <= -0.805\ngini = 0.257\nsamples = 33\nvalue = [28, 0, 0, 0, 0, 0, 5, 0, 0, 0]"] ;
80 -> 86 ;
87 [label="gini = 0.0\nsamples = 4\nvalue = [0, 0, 0, 0, 0, 0, 4, 0, 0, 0]"] ;
86 -> 87 ;
88 [label="X[3] <= -0.234\ngini = 0.067\nsamples = 29\nvalue = [28, 0, 0, 0, 0, 0, 1, 0, 0, 0]"] ;
86 -> 88 ;
89 [label="gini = 0.0\nsamples = 1\nvalue = [0, 0, 0, 0, 0, 0, 1, 0, 0, 0]"] ;
88 -> 89 ;
90 [label="gini = 0.0\nsamples = 28\nvalue = [28, 0, 0, 0, 0, 0, 0, 0, 0, 0]"] ;
88 -> 90 ;
91 [label="X[12] <= 88.819\ngini = 0.026\nsamples = 154\nvalue = [152, 2, 0, 0, 0, 0, 0, 0, 0, 0]"] ;
5 -> 91 ;
92 [label="X[15] <= -16.495\ngini = 0.013\nsamples = 153\nvalue = [152, 1, 0, 0, 0, 0, 0, 0, 0, 0]"] ;
91 -> 92 ;
93 [label="gini = 0.0\nsamples = 1\nvalue = [0, 1, 0, 0, 0, 0, 0, 0, 0, 0]"] ;
92 -> 93 ;
94 [label="gini = 0.0\nsamples = 152\nvalue = [152, 0, 0, 0, 0, 0, 0, 0, 0, 0]"] ;
92 -> 94 ;
95 [label="gini = 0.0\nsamples = 1\nvalue = [0, 1, 0, 0, 0, 0, 0, 0, 0, 0]"] ;
91 -> 95 ;
96 [label="X[14] <= -2.888\ngini = 0.515\nsamples = 1551\nvalue = [631, 45, 0, 0, 0, 0, 0, 0, 875, 0]"] ;
4 -> 96 ;
97 [label="X[10] <= -0.95\ngini = 0.382\nsamples = 423\nvalue = [324, 30, 0, 0, 0, 0, 0, 0, 69, 0]"] ;
96 -> 97 ;
98 [label="X[9] <= -0.205\ngini = 0.579\nsamples = 96\nvalue = [23, 18, 0, 0, 0, 0, 0, 0, 55, 0]"] ;
97 -> 98 ;
99 [label="X[9] <= -0.34\ngini = 0.496\nsamples = 33\nvalue = [15, 18, 0, 0, 0, 0, 0, 0, 0, 0]"] ;
98 -> 99 ;
100 [label="X[14] <= -17.853\ngini = 0.278\nsamples = 18\nvalue = [3, 15, 0, 0, 0, 0, 0, 0, 0, 0]"] ;
99 -> 100 ;
101 [label="gini = 0.0\nsamples = 2\nvalue = [2, 0, 0, 0, 0, 0, 0, 0, 0, 0]"] ;
100 -> 101 ;
102 [label="X[2] <= -11.868\ngini = 0.117\nsamples = 16\nvalue = [1, 15, 0, 0, 0, 0, 0, 0, 0, 0]"] ;
100 -> 102 ;
103 [label="gini = 0.0\nsamples = 1\nvalue = [1, 0, 0, 0, 0, 0, 0, 0, 0, 0]"] ;
102 -> 103 ;
104 [label="gini = 0.0\nsamples = 15\nvalue = [0, 15, 0, 0, 0, 0, 0, 0, 0, 0]"] ;
102 -> 104 ;
105 [label="X[13] <= -4.105\ngini = 0.32\nsamples = 15\nvalue = [12, 3, 0, 0, 0, 0, 0, 0, 0, 0]"] ;
99 -> 105 ;
106 [label="X[13] <= -13.895\ngini = 0.375\nsamples = 4\nvalue = [1, 3, 0, 0, 0, 0, 0, 0, 0, 0]"] ;
105 -> 106 ;
107 [label="gini = 0.0\nsamples = 1\nvalue = [1, 0, 0, 0, 0, 0, 0, 0, 0, 0]"] ;
106 -> 107 ;
108 [label="gini = 0.0\nsamples = 3\nvalue = [0, 3, 0, 0, 0, 0, 0, 0, 0, 0]"] ;
106 -> 108 ;
109 [label="gini = 0.0\nsamples = 11\nvalue = [11, 0, 0, 0, 0, 0, 0, 0, 0, 0]"] ;
105 -> 109 ;
110 [label="X[19] <= -0.322\ngini = 0.222\nsamples = 63\nvalue = [8, 0, 0, 0, 0, 0, 0, 0, 55, 0]"] ;
98 -> 110 ;
111 [label="X[6] <= -3.533\ngini = 0.245\nsamples = 7\nvalue = [6, 0, 0, 0, 0, 0, 0, 0, 1, 0]"] ;
110 -> 111 ;
112 [label="gini = 0.0\nsamples = 6\nvalue = [6, 0, 0, 0, 0, 0, 0, 0, 0, 0]"] ;
111 -> 112 ;
113 [label="gini = 0.0\nsamples = 1\nvalue = [0, 0, 0, 0, 0, 0, 0, 0, 1, 0]"] ;
111 -> 113 ;
114 [label="X[4] <= -0.473\ngini = 0.069\nsamples = 56\nvalue = [2, 0, 0, 0, 0, 0, 0, 0, 54, 0]"] ;
110 -> 114 ;
115 [label="gini = 0.0\nsamples = 2\nvalue = [2, 0, 0, 0, 0, 0, 0, 0, 0, 0]"] ;
114 -> 115 ;
116 [label="gini = 0.0\nsamples = 54\nvalue = [0, 0, 0, 0, 0, 0, 0, 0, 54, 0]"] ;
114 -> 116 ;
117 [label="X[0] <= -20.868\ngini = 0.15\nsamples = 327\nvalue = [301, 12, 0, 0, 0, 0, 0, 0, 14, 0]"] ;
97 -> 117 ;
118 [label="X[2] <= -7.992\ngini = 0.43\nsamples = 16\nvalue = [5, 11, 0, 0, 0, 0, 0, 0, 0, 0]"] ;
117 -> 118 ;
119 [label="X[7] <= -16.071\ngini = 0.408\nsamples = 7\nvalue = [5, 2, 0, 0, 0, 0, 0, 0, 0, 0]"] ;
118 -> 119 ;
120 [label="gini = 0.0\nsamples = 2\nvalue = [0, 2, 0, 0, 0, 0, 0, 0, 0, 0]"] ;
119 -> 120 ;
121 [label="gini = 0.0\nsamples = 5\nvalue = [5, 0, 0, 0, 0, 0, 0, 0, 0, 0]"] ;
119 -> 121 ;
122 [label="gini = 0.0\nsamples = 9\nvalue = [0, 9, 0, 0, 0, 0, 0, 0, 0, 0]"] ;
118 -> 122 ;
123 [label="X[0] <= -4.789\ngini = 0.092\nsamples = 311\nvalue = [296, 1, 0, 0, 0, 0, 0, 0, 14, 0]"] ;
117 -> 123 ;
124 [label="X[15] <= -18.657\ngini = 0.029\nsamples = 269\nvalue = [265, 1, 0, 0, 0, 0, 0, 0, 3, 0]"] ;
123 -> 124 ;
125 [label="gini = 0.0\nsamples = 1\nvalue = [0, 1, 0, 0, 0, 0, 0, 0, 0, 0]"] ;
124 -> 125 ;
126 [label="X[11] <= 36.824\ngini = 0.022\nsamples = 268\nvalue = [265, 0, 0, 0, 0, 0, 0, 0, 3, 0]"] ;
124 -> 126 ;
127 [label="X[19] <= -0.544\ngini = 0.008\nsamples = 255\nvalue = [254, 0, 0, 0, 0, 0, 0, 0, 1, 0]"] ;
126 -> 127 ;
128 [label="X[0] <= -5.123\ngini = 0.117\nsamples = 16\nvalue = [15, 0, 0, 0, 0, 0, 0, 0, 1, 0]"] ;
127 -> 128 ;
129 [label="gini = 0.0\nsamples = 15\nvalue = [15, 0, 0, 0, 0, 0, 0, 0, 0, 0]"] ;
128 -> 129 ;
130 [label="gini = 0.0\nsamples = 1\nvalue = [0, 0, 0, 0, 0, 0, 0, 0, 1, 0]"] ;
128 -> 130 ;
131 [label="gini = 0.0\nsamples = 239\nvalue = [239, 0, 0, 0, 0, 0, 0, 0, 0, 0]"] ;
127 -> 131 ;
132 [label="X[13] <= -2.874\ngini = 0.26\nsamples = 13\nvalue = [11, 0, 0, 0, 0, 0, 0, 0, 2, 0]"] ;
126 -> 132 ;
133 [label="gini = 0.0\nsamples = 2\nvalue = [0, 0, 0, 0, 0, 0, 0, 0, 2, 0]"] ;
132 -> 133 ;
134 [label="gini = 0.0\nsamples = 11\nvalue = [11, 0, 0, 0, 0, 0, 0, 0, 0, 0]"] ;
132 -> 134 ;
135 [label="X[1] <= 0.829\ngini = 0.387\nsamples = 42\nvalue = [31, 0, 0, 0, 0, 0, 0, 0, 11, 0]"] ;
123 -> 135 ;
136 [label="X[9] <= -0.414\ngini = 0.43\nsamples = 16\nvalue = [5, 0, 0, 0, 0, 0, 0, 0, 11, 0]"] ;
135 -> 136 ;
137 [label="X[15] <= -6.293\ngini = 0.153\nsamples = 12\nvalue = [1, 0, 0, 0, 0, 0, 0, 0, 11, 0]"] ;
136 -> 137 ;
138 [label="gini = 0.0\nsamples = 11\nvalue = [0, 0, 0, 0, 0, 0, 0, 0, 11, 0]"] ;
137 -> 138 ;
139 [label="gini = 0.0\nsamples = 1\nvalue = [1, 0, 0, 0, 0, 0, 0, 0, 0, 0]"] ;
137 -> 139 ;
140 [label="gini = 0.0\nsamples = 4\nvalue = [4, 0, 0, 0, 0, 0, 0, 0, 0, 0]"] ;
136 -> 140 ;
141 [label="gini = 0.0\nsamples = 26\nvalue = [26, 0, 0, 0, 0, 0, 0, 0, 0, 0]"] ;
135 -> 141 ;
142 [label="X[17] <= -0.146\ngini = 0.415\nsamples = 1128\nvalue = [307, 15, 0, 0, 0, 0, 0, 0, 806, 0]"] ;
96 -> 142 ;
143 [label="X[0] <= -8.908\ngini = 0.37\nsamples = 1057\nvalue = [237, 15, 0, 0, 0, 0, 0, 0, 805, 0]"] ;
142 -> 143 ;
144 [label="X[19] <= -0.401\ngini = 0.411\nsamples = 52\nvalue = [37, 15, 0, 0, 0, 0, 0, 0, 0, 0]"] ;
143 -> 144 ;
145 [label="gini = 0.0\nsamples = 7\nvalue = [0, 7, 0, 0, 0, 0, 0, 0, 0, 0]"] ;
144 -> 145 ;
146 [label="X[8] <= -0.3\ngini = 0.292\nsamples = 45\nvalue = [37, 8, 0, 0, 0, 0, 0, 0, 0, 0]"] ;
144 -> 146 ;
147 [label="X[8] <= -0.463\ngini = 0.105\nsamples = 36\nvalue = [34, 2, 0, 0, 0, 0, 0, 0, 0, 0]"] ;
146 -> 147 ;
148 [label="X[21] <= -24.363\ngini = 0.444\nsamples = 3\nvalue = [1, 2, 0, 0, 0, 0, 0, 0, 0, 0]"] ;
147 -> 148 ;
149 [label="gini = 0.0\nsamples = 1\nvalue = [1, 0, 0, 0, 0, 0, 0, 0, 0, 0]"] ;
148 -> 149 ;
150 [label="gini = 0.0\nsamples = 2\nvalue = [0, 2, 0, 0, 0, 0, 0, 0, 0, 0]"] ;
148 -> 150 ;
151 [label="gini = 0.0\nsamples = 33\nvalue = [33, 0, 0, 0, 0, 0, 0, 0, 0, 0]"] ;
147 -> 151 ;
152 [label="X[22] <= -7.561\ngini = 0.444\nsamples = 9\nvalue = [3, 6, 0, 0, 0, 0, 0, 0, 0, 0]"] ;
146 -> 152 ;
153 [label="gini = 0.0\nsamples = 3\nvalue = [3, 0, 0, 0, 0, 0, 0, 0, 0, 0]"] ;
152 -> 153 ;
154 [label="gini = 0.0\nsamples = 6\nvalue = [0, 6, 0, 0, 0, 0, 0, 0, 0, 0]"] ;
152 -> 154 ;
155 [label="X[8] <= -0.307\ngini = 0.319\nsamples = 1005\nvalue = [200, 0, 0, 0, 0, 0, 0, 0, 805, 0]"] ;
143 -> 155 ;
156 [label="X[8] <= -0.385\ngini = 0.3\nsamples = 980\nvalue = [180, 0, 0, 0, 0, 0, 0, 0, 800, 0]"] ;
155 -> 156 ;
157 [label="X[19] <= -0.365\ngini = 0.44\nsamples = 358\nvalue = [117, 0, 0, 0, 0, 0, 0, 0, 241, 0]"] ;
156 -> 157 ;
158 [label="X[9] <= -0.638\ngini = 0.463\nsamples = 96\nvalue = [61, 0, 0, 0, 0, 0, 0, 0, 35, 0]"] ;
157 -> 158 ;
159 [label="X[11] <= 19.384\ngini = 0.339\nsamples = 37\nvalue = [8, 0, 0, 0, 0, 0, 0, 0, 29, 0]"] ;
158 -> 159 ;
160 [label="X[14] <= -2.326\ngini = 0.17\nsamples = 32\nvalue = [3, 0, 0, 0, 0, 0, 0, 0, 29, 0]"] ;
159 -> 160 ;
161 [label="gini = 0.0\nsamples = 3\nvalue = [3, 0, 0, 0, 0, 0, 0, 0, 0, 0]"] ;
160 -> 161 ;
162 [label="gini = 0.0\nsamples = 29\nvalue = [0, 0, 0, 0, 0, 0, 0, 0, 29, 0]"] ;
160 -> 162 ;
163 [label="gini = 0.0\nsamples = 5\nvalue = [5, 0, 0, 0, 0, 0, 0, 0, 0, 0]"] ;
159 -> 163 ;
164 [label="X[17] <= -0.395\ngini = 0.183\nsamples = 59\nvalue = [53, 0, 0, 0, 0, 0, 0, 0, 6, 0]"] ;
158 -> 164 ;
165 [label="X[17] <= -0.438\ngini = 0.469\nsamples = 8\nvalue = [3, 0, 0, 0, 0, 0, 0, 0, 5, 0]"] ;
164 -> 165 ;
166 [label="gini = 0.0\nsamples = 3\nvalue = [3, 0, 0, 0, 0, 0, 0, 0, 0, 0]"] ;
165 -> 166 ;
167 [label="gini = 0.0\nsamples = 5\nvalue = [0, 0, 0, 0, 0, 0, 0, 0, 5, 0]"] ;
165 -> 167 ;
168 [label="X[4] <= 0.906\ngini = 0.038\nsamples = 51\nvalue = [50, 0, 0, 0, 0, 0, 0, 0, 1, 0]"] ;
164 -> 168 ;
169 [label="gini = 0.0\nsamples = 50\nvalue = [50, 0, 0, 0, 0, 0, 0, 0, 0, 0]"] ;
168 -> 169 ;
170 [label="gini = 0.0\nsamples = 1\nvalue = [0, 0, 0, 0, 0, 0, 0, 0, 1, 0]"] ;
168 -> 170 ;
171 [label="X[18] <= -0.839\ngini = 0.336\nsamples = 262\nvalue = [56, 0, 0, 0, 0, 0, 0, 0, 206, 0]"] ;
157 -> 171 ;
172 [label="X[21] <= -40.607\ngini = 0.205\nsamples = 181\nvalue = [21, 0, 0, 0, 0, 0, 0, 0, 160, 0]"] ;
171 -> 172 ;
173 [label="X[8] <= -0.401\ngini = 0.473\nsamples = 13\nvalue = [8, 0, 0, 0, 0, 0, 0, 0, 5, 0]"] ;
172 -> 173 ;
174 [label="gini = 0.0\nsamples = 8\nvalue = [8, 0, 0, 0, 0, 0, 0, 0, 0, 0]"] ;
173 -> 174 ;
175 [label="gini = 0.0\nsamples = 5\nvalue = [0, 0, 0, 0, 0, 0, 0, 0, 5, 0]"] ;
173 -> 175 ;
176 [label="X[5] <= -1.401\ngini = 0.143\nsamples = 168\nvalue = [13, 0, 0, 0, 0, 0, 0, 0, 155, 0]"] ;
172 -> 176 ;
177 [label="X[15] <= -10.409\ngini = 0.375\nsamples = 4\nvalue = [3, 0, 0, 0, 0, 0, 0, 0, 1, 0]"] ;
176 -> 177 ;
178 [label="gini = 0.0\nsamples = 1\nvalue = [0, 0, 0, 0, 0, 0, 0, 0, 1, 0]"] ;
177 -> 178 ;
179 [label="gini = 0.0\nsamples = 3\nvalue = [3, 0, 0, 0, 0, 0, 0, 0, 0, 0]"] ;
177 -> 179 ;
180 [label="X[4] <= -0.919\ngini = 0.115\nsamples = 164\nvalue = [10, 0, 0, 0, 0, 0, 0, 0, 154, 0]"] ;
176 -> 180 ;
181 [label="X[7] <= -3.814\ngini = 0.444\nsamples = 3\nvalue = [2, 0, 0, 0, 0, 0, 0, 0, 1, 0]"] ;
180 -> 181 ;
182 [label="gini = 0.0\nsamples = 2\nvalue = [2, 0, 0, 0, 0, 0, 0, 0, 0, 0]"] ;
181 -> 182 ;
183 [label="gini = 0.0\nsamples = 1\nvalue = [0, 0, 0, 0, 0, 0, 0, 0, 1, 0]"] ;
181 -> 183 ;
184 [label="X[6] <= -0.56\ngini = 0.094\nsamples = 161\nvalue = [8, 0, 0, 0, 0, 0, 0, 0, 153, 0]"] ;
180 -> 184 ;
185 [label="X[13] <= 8.989\ngini = 0.084\nsamples = 160\nvalue = [7, 0, 0, 0, 0, 0, 0, 0, 153, 0]"] ;
184 -> 185 ;
186 [label="X[19] <= -0.333\ngini = 0.073\nsamples = 159\nvalue = [6, 0, 0, 0, 0, 0, 0, 0, 153, 0]"] ;
185 -> 186 ;
187 [label="X[2] <= -8.456\ngini = 0.271\nsamples = 31\nvalue = [5, 0, 0, 0, 0, 0, 0, 0, 26, 0]"] ;
186 -> 187 ;
188 [label="gini = 0.0\nsamples = 5\nvalue = [5, 0, 0, 0, 0, 0, 0, 0, 0, 0]"] ;
187 -> 188 ;
189 [label="gini = 0.0\nsamples = 26\nvalue = [0, 0, 0, 0, 0, 0, 0, 0, 26, 0]"] ;
187 -> 189 ;
190 [label="X[1] <= 0.868\ngini = 0.016\nsamples = 128\nvalue = [1, 0, 0, 0, 0, 0, 0, 0, 127, 0]"] ;
186 -> 190 ;
191 [label="gini = 0.0\nsamples = 127\nvalue = [0, 0, 0, 0, 0, 0, 0, 0, 127, 0]"] ;
190 -> 191 ;
192 [label="gini = 0.0\nsamples = 1\nvalue = [1, 0, 0, 0, 0, 0, 0, 0, 0, 0]"] ;
190 -> 192 ;
193 [label="gini = 0.0\nsamples = 1\nvalue = [1, 0, 0, 0, 0, 0, 0, 0, 0, 0]"] ;
185 -> 193 ;
194 [label="gini = 0.0\nsamples = 1\nvalue = [1, 0, 0, 0, 0, 0, 0, 0, 0, 0]"] ;
184 -> 194 ;
195 [label="X[17] <= -0.496\ngini = 0.491\nsamples = 81\nvalue = [35, 0, 0, 0, 0, 0, 0, 0, 46, 0]"] ;
171 -> 195 ;
196 [label="X[3] <= 0.536\ngini = 0.357\nsamples = 43\nvalue = [10, 0, 0, 0, 0, 0, 0, 0, 33, 0]"] ;
195 -> 196 ;
197 [label="X[12] <= 177.008\ngini = 0.161\nsamples = 34\nvalue = [3, 0, 0, 0, 0, 0, 0, 0, 31, 0]"] ;
196 -> 197 ;
198 [label="gini = 0.0\nsamples = 31\nvalue = [0, 0, 0, 0, 0, 0, 0, 0, 31, 0]"] ;
197 -> 198 ;
199 [label="gini = 0.0\nsamples = 3\nvalue = [3, 0, 0, 0, 0, 0, 0, 0, 0, 0]"] ;
197 -> 199 ;
200 [label="X[19] <= -0.255\ngini = 0.346\nsamples = 9\nvalue = [7, 0, 0, 0, 0, 0, 0, 0, 2, 0]"] ;
196 -> 200 ;
201 [label="gini = 0.0\nsamples = 2\nvalue = [0, 0, 0, 0, 0, 0, 0, 0, 2, 0]"] ;
200 -> 201 ;
202 [label="gini = 0.0\nsamples = 7\nvalue = [7, 0, 0, 0, 0, 0, 0, 0, 0, 0]"] ;
200 -> 202 ;
203 [label="X[20] <= -3.33\ngini = 0.45\nsamples = 38\nvalue = [25, 0, 0, 0, 0, 0, 0, 0, 13, 0]"] ;
195 -> 203 ;
204 [label="X[11] <= -19.453\ngini = 0.211\nsamples = 25\nvalue = [22, 0, 0, 0, 0, 0, 0, 0, 3, 0]"] ;
203 -> 204 ;
205 [label="gini = 0.0\nsamples = 3\nvalue = [0, 0, 0, 0, 0, 0, 0, 0, 3, 0]"] ;
204 -> 205 ;
206 [label="gini = 0.0\nsamples = 22\nvalue = [22, 0, 0, 0, 0, 0, 0, 0, 0, 0]"] ;
204 -> 206 ;
207 [label="X[10] <= -1.026\ngini = 0.355\nsamples = 13\nvalue = [3, 0, 0, 0, 0, 0, 0, 0, 10, 0]"] ;
203 -> 207 ;
208 [label="gini = 0.0\nsamples = 3\nvalue = [3, 0, 0, 0, 0, 0, 0, 0, 0, 0]"] ;
207 -> 208 ;
209 [label="gini = 0.0\nsamples = 10\nvalue = [0, 0, 0, 0, 0, 0, 0, 0, 10, 0]"] ;
207 -> 209 ;
210 [label="X[4] <= -0.864\ngini = 0.182\nsamples = 622\nvalue = [63, 0, 0, 0, 0, 0, 0, 0, 559, 0]"] ;
156 -> 210 ;
211 [label="gini = 0.0\nsamples = 5\nvalue = [5, 0, 0, 0, 0, 0, 0, 0, 0, 0]"] ;
210 -> 211 ;
212 [label="X[19] <= -0.37\ngini = 0.17\nsamples = 617\nvalue = [58, 0, 0, 0, 0, 0, 0, 0, 559, 0]"] ;
210 -> 212 ;
213 [label="X[7] <= -3.689\ngini = 0.26\nsamples = 280\nvalue = [43, 0, 0, 0, 0, 0, 0, 0, 237, 0]"] ;
212 -> 213 ;
214 [label="X[18] <= -0.905\ngini = 0.497\nsamples = 56\nvalue = [26, 0, 0, 0, 0, 0, 0, 0, 30, 0]"] ;
213 -> 214 ;
215 [label="X[22] <= 13.224\ngini = 0.236\nsamples = 22\nvalue = [19, 0, 0, 0, 0, 0, 0, 0, 3, 0]"] ;
214 -> 215 ;
216 [label="X[13] <= 4.062\ngini = 0.095\nsamples = 20\nvalue = [19, 0, 0, 0, 0, 0, 0, 0, 1, 0]"] ;
215 -> 216 ;
217 [label="gini = 0.0\nsamples = 19\nvalue = [19, 0, 0, 0, 0, 0, 0, 0, 0, 0]"] ;
216 -> 217 ;
218 [label="gini = 0.0\nsamples = 1\nvalue = [0, 0, 0, 0, 0, 0, 0, 0, 1, 0]"] ;
216 -> 218 ;
219 [label="gini = 0.0\nsamples = 2\nvalue = [0, 0, 0, 0, 0, 0, 0, 0, 2, 0]"] ;
215 -> 219 ;
220 [label="X[4] <= 0.067\ngini = 0.327\nsamples = 34\nvalue = [7, 0, 0, 0, 0, 0, 0, 0, 27, 0]"] ;
214 -> 220 ;
221 [label="gini = 0.0\nsamples = 25\nvalue = [0, 0, 0, 0, 0, 0, 0, 0, 25, 0]"] ;
220 -> 221 ;
222 [label="X[16] <= 1.19\ngini = 0.346\nsamples = 9\nvalue = [7, 0, 0, 0, 0, 0, 0, 0, 2, 0]"] ;
220 -> 222 ;
223 [label="gini = 0.0\nsamples = 7\nvalue = [7, 0, 0, 0, 0, 0, 0, 0, 0, 0]"] ;
222 -> 223 ;
224 [label="gini = 0.0\nsamples = 2\nvalue = [0, 0, 0, 0, 0, 0, 0, 0, 2, 0]"] ;
222 -> 224 ;
225 [label="X[18] <= -0.959\ngini = 0.14\nsamples = 224\nvalue = [17, 0, 0, 0, 0, 0, 0, 0, 207, 0]"] ;
213 -> 225 ;
226 [label="X[11] <= -23.396\ngini = 0.458\nsamples = 31\nvalue = [11, 0, 0, 0, 0, 0, 0, 0, 20, 0]"] ;
225 -> 226 ;
227 [label="X[3] <= 0.255\ngini = 0.153\nsamples = 12\nvalue = [11, 0, 0, 0, 0, 0, 0, 0, 1, 0]"] ;
226 -> 227 ;
228 [label="gini = 0.0\nsamples = 11\nvalue = [11, 0, 0, 0, 0, 0, 0, 0, 0, 0]"] ;
227 -> 228 ;
229 [label="gini = 0.0\nsamples = 1\nvalue = [0, 0, 0, 0, 0, 0, 0, 0, 1, 0]"] ;
227 -> 229 ;
230 [label="gini = 0.0\nsamples = 19\nvalue = [0, 0, 0, 0, 0, 0, 0, 0, 19, 0]"] ;
226 -> 230 ;
231 [label="X[12] <= -9.956\ngini = 0.06\nsamples = 193\nvalue = [6, 0, 0, 0, 0, 0, 0, 0, 187, 0]"] ;
225 -> 231 ;
232 [label="X[2] <= -6.924\ngini = 0.42\nsamples = 10\nvalue = [3, 0, 0, 0, 0, 0, 0, 0, 7, 0]"] ;
231 -> 232 ;
233 [label="gini = 0.0\nsamples = 7\nvalue = [0, 0, 0, 0, 0, 0, 0, 0, 7, 0]"] ;
232 -> 233 ;
234 [label="gini = 0.0\nsamples = 3\nvalue = [3, 0, 0, 0, 0, 0, 0, 0, 0, 0]"] ;
232 -> 234 ;
235 [label="X[11] <= 36.356\ngini = 0.032\nsamples = 183\nvalue = [3, 0, 0, 0, 0, 0, 0, 0, 180, 0]"] ;
231 -> 235 ;
236 [label="X[5] <= 0.666\ngini = 0.011\nsamples = 175\nvalue = [1, 0, 0, 0, 0, 0, 0, 0, 174, 0]"] ;
235 -> 236 ;
237 [label="X[0] <= -6.694\ngini = 0.198\nsamples = 9\nvalue = [1, 0, 0, 0, 0, 0, 0, 0, 8, 0]"] ;
236 -> 237 ;
238 [label="gini = 0.0\nsamples = 1\nvalue = [1, 0, 0, 0, 0, 0, 0, 0, 0, 0]"] ;
237 -> 238 ;
239 [label="gini = 0.0\nsamples = 8\nvalue = [0, 0, 0, 0, 0, 0, 0, 0, 8, 0]"] ;
237 -> 239 ;
240 [label="gini = 0.0\nsamples = 166\nvalue = [0, 0, 0, 0, 0, 0, 0, 0, 166, 0]"] ;
236 -> 240 ;
241 [label="X[1] <= -0.561\ngini = 0.375\nsamples = 8\nvalue = [2, 0, 0, 0, 0, 0, 0, 0, 6, 0]"] ;
235 -> 241 ;
242 [label="gini = 0.0\nsamples = 2\nvalue = [2, 0, 0, 0, 0, 0, 0, 0, 0, 0]"] ;
241 -> 242 ;
243 [label="gini = 0.0\nsamples = 6\nvalue = [0, 0, 0, 0, 0, 0, 0, 0, 6, 0]"] ;
241 -> 243 ;
244 [label="X[0] <= -3.804\ngini = 0.085\nsamples = 337\nvalue = [15, 0, 0, 0, 0, 0, 0, 0, 322, 0]"] ;
212 -> 244 ;
245 [label="X[15] <= -2.659\ngini = 0.075\nsamples = 335\nvalue = [13, 0, 0, 0, 0, 0, 0, 0, 322, 0]"] ;
244 -> 245 ;
246 [label="X[3] <= -0.548\ngini = 0.069\nsamples = 334\nvalue = [12, 0, 0, 0, 0, 0, 0, 0, 322, 0]"] ;
245 -> 246 ;
247 [label="X[7] <= -3.129\ngini = 0.469\nsamples = 8\nvalue = [3, 0, 0, 0, 0, 0, 0, 0, 5, 0]"] ;
246 -> 247 ;
248 [label="gini = 0.0\nsamples = 3\nvalue = [3, 0, 0, 0, 0, 0, 0, 0, 0, 0]"] ;
247 -> 248 ;
249 [label="gini = 0.0\nsamples = 5\nvalue = [0, 0, 0, 0, 0, 0, 0, 0, 5, 0]"] ;
247 -> 249 ;
250 [label="X[4] <= 1.239\ngini = 0.054\nsamples = 326\nvalue = [9, 0, 0, 0, 0, 0, 0, 0, 317, 0]"] ;
246 -> 250 ;
251 [label="X[22] <= -23.151\ngini = 0.048\nsamples = 325\nvalue = [8, 0, 0, 0, 0, 0, 0, 0, 317, 0]"] ;
250 -> 251 ;
252 [label="X[15] <= -7.583\ngini = 0.234\nsamples = 37\nvalue = [5, 0, 0, 0, 0, 0, 0, 0, 32, 0]"] ;
251 -> 252 ;
253 [label="X[0] <= -4.106\ngini = 0.061\nsamples = 32\nvalue = [1, 0, 0, 0, 0, 0, 0, 0, 31, 0]"] ;
252 -> 253 ;
254 [label="gini = 0.0\nsamples = 31\nvalue = [0, 0, 0, 0, 0, 0, 0, 0, 31, 0]"] ;
253 -> 254 ;
255 [label="gini = 0.0\nsamples = 1\nvalue = [1, 0, 0, 0, 0, 0, 0, 0, 0, 0]"] ;
253 -> 255 ;
256 [label="X[21] <= 14.664\ngini = 0.32\nsamples = 5\nvalue = [4, 0, 0, 0, 0, 0, 0, 0, 1, 0]"] ;
252 -> 256 ;
257 [label="gini = 0.0\nsamples = 4\nvalue = [4, 0, 0, 0, 0, 0, 0, 0, 0, 0]"] ;
256 -> 257 ;
258 [label="gini = 0.0\nsamples = 1\nvalue = [0, 0, 0, 0, 0, 0, 0, 0, 1, 0]"] ;
256 -> 258 ;
259 [label="X[13] <= -8.386\ngini = 0.021\nsamples = 288\nvalue = [3, 0, 0, 0, 0, 0, 0, 0, 285, 0]"] ;
251 -> 259 ;
260 [label="X[8] <= -0.327\ngini = 0.5\nsamples = 2\nvalue = [1, 0, 0, 0, 0, 0, 0, 0, 1, 0]"] ;
259 -> 260 ;
261 [label="gini = 0.0\nsamples = 1\nvalue = [0, 0, 0, 0, 0, 0, 0, 0, 1, 0]"] ;
260 -> 261 ;
262 [label="gini = 0.0\nsamples = 1\nvalue = [1, 0, 0, 0, 0, 0, 0, 0, 0, 0]"] ;
260 -> 262 ;
263 [label="X[4] <= 0.913\ngini = 0.014\nsamples = 286\nvalue = [2, 0, 0, 0, 0, 0, 0, 0, 284, 0]"] ;
259 -> 263 ;
264 [label="X[4] <= 0.567\ngini = 0.007\nsamples = 282\nvalue = [1, 0, 0, 0, 0, 0, 0, 0, 281, 0]"] ;
263 -> 264 ;
265 [label="gini = 0.0\nsamples = 269\nvalue = [0, 0, 0, 0, 0, 0, 0, 0, 269, 0]"] ;
264 -> 265 ;
266 [label="X[2] <= -11.607\ngini = 0.142\nsamples = 13\nvalue = [1, 0, 0, 0, 0, 0, 0, 0, 12, 0]"] ;
264 -> 266 ;
267 [label="gini = 0.0\nsamples = 1\nvalue = [1, 0, 0, 0, 0, 0, 0, 0, 0, 0]"] ;
266 -> 267 ;
268 [label="gini = 0.0\nsamples = 12\nvalue = [0, 0, 0, 0, 0, 0, 0, 0, 12, 0]"] ;
266 -> 268 ;
269 [label="X[4] <= 0.942\ngini = 0.375\nsamples = 4\nvalue = [1, 0, 0, 0, 0, 0, 0, 0, 3, 0]"] ;
263 -> 269 ;
270 [label="gini = 0.0\nsamples = 1\nvalue = [1, 0, 0, 0, 0, 0, 0, 0, 0, 0]"] ;
269 -> 270 ;
271 [label="gini = 0.0\nsamples = 3\nvalue = [0, 0, 0, 0, 0, 0, 0, 0, 3, 0]"] ;
269 -> 271 ;
272 [label="gini = 0.0\nsamples = 1\nvalue = [1, 0, 0, 0, 0, 0, 0, 0, 0, 0]"] ;
250 -> 272 ;
273 [label="gini = 0.0\nsamples = 1\nvalue = [1, 0, 0, 0, 0, 0, 0, 0, 0, 0]"] ;
245 -> 273 ;
274 [label="gini = 0.0\nsamples = 2\nvalue = [2, 0, 0, 0, 0, 0, 0, 0, 0, 0]"] ;
244 -> 274 ;
275 [label="X[17] <= -0.349\ngini = 0.32\nsamples = 25\nvalue = [20, 0, 0, 0, 0, 0, 0, 0, 5, 0]"] ;
155 -> 275 ;
276 [label="X[20] <= -24.782\ngini = 0.165\nsamples = 22\nvalue = [20, 0, 0, 0, 0, 0, 0, 0, 2, 0]"] ;
275 -> 276 ;
277 [label="gini = 0.0\nsamples = 2\nvalue = [0, 0, 0, 0, 0, 0, 0, 0, 2, 0]"] ;
276 -> 277 ;
278 [label="gini = 0.0\nsamples = 20\nvalue = [20, 0, 0, 0, 0, 0, 0, 0, 0, 0]"] ;
276 -> 278 ;
279 [label="gini = 0.0\nsamples = 3\nvalue = [0, 0, 0, 0, 0, 0, 0, 0, 3, 0]"] ;
275 -> 279 ;
280 [label="X[19] <= -0.763\ngini = 0.028\nsamples = 71\nvalue = [70, 0, 0, 0, 0, 0, 0, 0, 1, 0]"] ;
142 -> 280 ;
281 [label="gini = 0.0\nsamples = 1\nvalue = [0, 0, 0, 0, 0, 0, 0, 0, 1, 0]"] ;
280 -> 281 ;
282 [label="gini = 0.0\nsamples = 70\nvalue = [70, 0, 0, 0, 0, 0, 0, 0, 0, 0]"] ;
280 -> 282 ;
283 [label="X[15] <= 1.471\ngini = 0.073\nsamples = 991\nvalue = [954, 20, 0, 0, 0, 0, 0, 0, 17, 0]"] ;
3 -> 283 ;
284 [label="X[10] <= -0.968\ngini = 0.049\nsamples = 970\nvalue = [946, 7, 0, 0, 0, 0, 0, 0, 17, 0]"] ;
283 -> 284 ;
285 [label="X[17] <= -0.534\ngini = 0.463\nsamples = 44\nvalue = [28, 0, 0, 0, 0, 0, 0, 0, 16, 0]"] ;
284 -> 285 ;
286 [label="X[18] <= -0.943\ngini = 0.111\nsamples = 17\nvalue = [1, 0, 0, 0, 0, 0, 0, 0, 16, 0]"] ;
285 -> 286 ;
287 [label="gini = 0.0\nsamples = 1\nvalue = [1, 0, 0, 0, 0, 0, 0, 0, 0, 0]"] ;
286 -> 287 ;
288 [label="gini = 0.0\nsamples = 16\nvalue = [0, 0, 0, 0, 0, 0, 0, 0, 16, 0]"] ;
286 -> 288 ;
289 [label="gini = 0.0\nsamples = 27\nvalue = [27, 0, 0, 0, 0, 0, 0, 0, 0, 0]"] ;
285 -> 289 ;
290 [label="X[0] <= -21.673\ngini = 0.017\nsamples = 926\nvalue = [918, 7, 0, 0, 0, 0, 0, 0, 1, 0]"] ;
284 -> 290 ;
291 [label="X[10] <= -0.756\ngini = 0.473\nsamples = 13\nvalue = [8, 5, 0, 0, 0, 0, 0, 0, 0, 0]"] ;
290 -> 291 ;
292 [label="gini = 0.0\nsamples = 5\nvalue = [0, 5, 0, 0, 0, 0, 0, 0, 0, 0]"] ;
291 -> 292 ;
293 [label="gini = 0.0\nsamples = 8\nvalue = [8, 0, 0, 0, 0, 0, 0, 0, 0, 0]"] ;
291 -> 293 ;
294 [label="X[11] <= 154.305\ngini = 0.007\nsamples = 913\nvalue = [910, 2, 0, 0, 0, 0, 0, 0, 1, 0]"] ;
290 -> 294 ;
295 [label="X[22] <= -165.715\ngini = 0.004\nsamples = 912\nvalue = [910, 1, 0, 0, 0, 0, 0, 0, 1, 0]"] ;
294 -> 295 ;
296 [label="gini = 0.0\nsamples = 1\nvalue = [0, 1, 0, 0, 0, 0, 0, 0, 0, 0]"] ;
295 -> 296 ;
297 [label="X[10] <= -0.948\ngini = 0.002\nsamples = 911\nvalue = [910, 0, 0, 0, 0, 0, 0, 0, 1, 0]"] ;
295 -> 297 ;
298 [label="X[15] <= -9.653\ngini = 0.124\nsamples = 15\nvalue = [14, 0, 0, 0, 0, 0, 0, 0, 1, 0]"] ;
297 -> 298 ;
299 [label="gini = 0.0\nsamples = 1\nvalue = [0, 0, 0, 0, 0, 0, 0, 0, 1, 0]"] ;
298 -> 299 ;
300 [label="gini = 0.0\nsamples = 14\nvalue = [14, 0, 0, 0, 0, 0, 0, 0, 0, 0]"] ;
298 -> 300 ;
301 [label="gini = 0.0\nsamples = 896\nvalue = [896, 0, 0, 0, 0, 0, 0, 0, 0, 0]"] ;
297 -> 301 ;
302 [label="gini = 0.0\nsamples = 1\nvalue = [0, 1, 0, 0, 0, 0, 0, 0, 0, 0]"] ;
294 -> 302 ;
303 [label="X[21] <= 12.096\ngini = 0.472\nsamples = 21\nvalue = [8, 13, 0, 0, 0, 0, 0, 0, 0, 0]"] ;
283 -> 303 ;
304 [label="X[18] <= -0.741\ngini = 0.142\nsamples = 13\nvalue = [1, 12, 0, 0, 0, 0, 0, 0, 0, 0]"] ;
303 -> 304 ;
305 [label="gini = 0.0\nsamples = 1\nvalue = [1, 0, 0, 0, 0, 0, 0, 0, 0, 0]"] ;
304 -> 305 ;
306 [label="gini = 0.0\nsamples = 12\nvalue = [0, 12, 0, 0, 0, 0, 0, 0, 0, 0]"] ;
304 -> 306 ;
307 [label="X[12] <= -126.083\ngini = 0.219\nsamples = 8\nvalue = [7, 1, 0, 0, 0, 0, 0, 0, 0, 0]"] ;
303 -> 307 ;
308 [label="gini = 0.0\nsamples = 1\nvalue = [0, 1, 0, 0, 0, 0, 0, 0, 0, 0]"] ;
307 -> 308 ;
309 [label="gini = 0.0\nsamples = 7\nvalue = [7, 0, 0, 0, 0, 0, 0, 0, 0, 0]"] ;
307 -> 309 ;
310 [label="X[15] <= -6.901\ngini = 0.179\nsamples = 76570\nvalue = [69300, 518, 7, 0, 214, 2537, 1323, 1378, 1293, 0]"] ;
2 -> 310 ;
311 [label="X[2] <= 0.751\ngini = 0.29\nsamples = 37934\nvalue = [31826, 260, 0, 0, 214, 2271, 1097, 1077, 1189, 0]"] ;
310 -> 311 ;
312 [label="X[9] <= -0.744\ngini = 0.415\nsamples = 18583\nvalue = [14050, 184, 0, 0, 153, 1191, 1060, 787, 1158, 0]"] ;
311 -> 312 ;
313 [label="X[8] <= -0.543\ngini = 0.556\nsamples = 9926\nvalue = [6372, 18, 0, 0, 153, 495, 1051, 787, 1050, 0]"] ;
312 -> 313 ;
314 [label="X[10] <= -0.317\ngini = 0.647\nsamples = 3693\nvalue = [1784, 0, 0, 0, 0, 130, 1019, 760, 0, 0]"] ;
313 -> 314 ;
315 [label="X[18] <= -1.081\ngini = 0.491\nsamples = 1626\nvalue = [577, 0, 0, 0, 0, 43, 1006, 0, 0, 0]"] ;
314 -> 315 ;
316 [label="X[10] <= -1.427\ngini = 0.371\nsamples = 433\nvalue = [336, 0, 0, 0, 0, 37, 60, 0, 0, 0]"] ;
315 -> 316 ;
317 [label="gini = 0.0\nsamples = 37\nvalue = [0, 0, 0, 0, 0, 37, 0, 0, 0, 0]"] ;
316 -> 317 ;
318 [label="X[18] <= -1.102\ngini = 0.257\nsamples = 396\nvalue = [336, 0, 0, 0, 0, 0, 60, 0, 0, 0]"] ;
316 -> 318 ;
319 [label="gini = 0.0\nsamples = 212\nvalue = [212, 0, 0, 0, 0, 0, 0, 0, 0, 0]"] ;
318 -> 319 ;
320 [label="X[17] <= -0.067\ngini = 0.44\nsamples = 184\nvalue = [124, 0, 0, 0, 0, 0, 60, 0, 0, 0]"] ;
318 -> 320 ;
321 [label="X[19] <= -0.328\ngini = 0.499\nsamples = 116\nvalue = [56, 0, 0, 0, 0, 0, 60, 0, 0, 0]"] ;
320 -> 321 ;
322 [label="X[14] <= -3.786\ngini = 0.278\nsamples = 48\nvalue = [40, 0, 0, 0, 0, 0, 8, 0, 0, 0]"] ;
321 -> 322 ;
323 [label="gini = 0.0\nsamples = 6\nvalue = [0, 0, 0, 0, 0, 0, 6, 0, 0, 0]"] ;
322 -> 323 ;
324 [label="X[20] <= 5.665\ngini = 0.091\nsamples = 42\nvalue = [40, 0, 0, 0, 0, 0, 2, 0, 0, 0]"] ;
322 -> 324 ;
325 [label="gini = 0.0\nsamples = 40\nvalue = [40, 0, 0, 0, 0, 0, 0, 0, 0, 0]"] ;
324 -> 325 ;
326 [label="gini = 0.0\nsamples = 2\nvalue = [0, 0, 0, 0, 0, 0, 2, 0, 0, 0]"] ;
324 -> 326 ;
327 [label="X[19] <= -0.235\ngini = 0.36\nsamples = 68\nvalue = [16, 0, 0, 0, 0, 0, 52, 0, 0, 0]"] ;
321 -> 327 ;
328 [label="X[21] <= 9.147\ngini = 0.185\nsamples = 58\nvalue = [6, 0, 0, 0, 0, 0, 52, 0, 0, 0]"] ;
327 -> 328 ;
329 [label="gini = 0.0\nsamples = 50\nvalue = [0, 0, 0, 0, 0, 0, 50, 0, 0, 0]"] ;
328 -> 329 ;
330 [label="X[15] <= -7.808\ngini = 0.375\nsamples = 8\nvalue = [6, 0, 0, 0, 0, 0, 2, 0, 0, 0]"] ;
328 -> 330 ;
331 [label="gini = 0.0\nsamples = 6\nvalue = [6, 0, 0, 0, 0, 0, 0, 0, 0, 0]"] ;
330 -> 331 ;
332 [label="gini = 0.0\nsamples = 2\nvalue = [0, 0, 0, 0, 0, 0, 2, 0, 0, 0]"] ;
330 -> 332 ;
333 [label="gini = 0.0\nsamples = 10\nvalue = [10, 0, 0, 0, 0, 0, 0, 0, 0, 0]"] ;
327 -> 333 ;
334 [label="gini = 0.0\nsamples = 68\nvalue = [68, 0, 0, 0, 0, 0, 0, 0, 0, 0]"] ;
320 -> 334 ;
335 [label="X[8] <= -0.641\ngini = 0.33\nsamples = 1193\nvalue = [241, 0, 0, 0, 0, 6, 946, 0, 0, 0]"] ;
315 -> 335 ;
336 [label="X[9] <= -0.753\ngini = 0.283\nsamples = 80\nvalue = [67, 0, 0, 0, 0, 4, 9, 0, 0, 0]"] ;
335 -> 336 ;
337 [label="X[9] <= -0.81\ngini = 0.209\nsamples = 76\nvalue = [67, 0, 0, 0, 0, 0, 9, 0, 0, 0]"] ;
336 -> 337 ;
338 [label="X[4] <= -0.044\ngini = 0.498\nsamples = 17\nvalue = [8, 0, 0, 0, 0, 0, 9, 0, 0, 0]"] ;
337 -> 338 ;
339 [label="gini = 0.0\nsamples = 8\nvalue = [8, 0, 0, 0, 0, 0, 0, 0, 0, 0]"] ;
338 -> 339 ;
340 [label="gini = 0.0\nsamples = 9\nvalue = [0, 0, 0, 0, 0, 0, 9, 0, 0, 0]"] ;
338 -> 340 ;
341 [label="gini = 0.0\nsamples = 59\nvalue = [59, 0, 0, 0, 0, 0, 0, 0, 0, 0]"] ;
337 -> 341 ;
342 [label="gini = 0.0\nsamples = 4\nvalue = [0, 0, 0, 0, 0, 4, 0, 0, 0, 0]"] ;
336 -> 342 ;
343 [label="X[13] <= 3.086\ngini = 0.267\nsamples = 1113\nvalue = [174, 0, 0, 0, 0, 2, 937, 0, 0, 0]"] ;
335 -> 343 ;
344 [label="X[5] <= 0.543\ngini = 0.233\nsamples = 1082\nvalue = [146, 0, 0, 0, 0, 0, 936, 0, 0, 0]"] ;
343 -> 344 ;
345 [label="X[10] <= -0.6\ngini = 0.21\nsamples = 1051\nvalue = [125, 0, 0, 0, 0, 0, 926, 0, 0, 0]"] ;
344 -> 345 ;
346 [label="X[18] <= -0.908\ngini = 0.444\nsamples = 27\nvalue = [18, 0, 0, 0, 0, 0, 9, 0, 0, 0]"] ;
345 -> 346 ;
347 [label="gini = 0.0\nsamples = 18\nvalue = [18, 0, 0, 0, 0, 0, 0, 0, 0, 0]"] ;
346 -> 347 ;
348 [label="gini = 0.0\nsamples = 9\nvalue = [0, 0, 0, 0, 0, 0, 9, 0, 0, 0]"] ;
346 -> 348 ;
349 [label="X[8] <= -0.628\ngini = 0.187\nsamples = 1024\nvalue = [107, 0, 0, 0, 0, 0, 917, 0, 0, 0]"] ;
345 -> 349 ;
350 [label="X[2] <= -1.642\ngini = 0.481\nsamples = 67\nvalue = [27, 0, 0, 0, 0, 0, 40, 0, 0, 0]"] ;
349 -> 350 ;
351 [label="gini = 0.0\nsamples = 20\nvalue = [20, 0, 0, 0, 0, 0, 0, 0, 0, 0]"] ;
350 -> 351 ;
352 [label="X[4] <= 0.008\ngini = 0.254\nsamples = 47\nvalue = [7, 0, 0, 0, 0, 0, 40, 0, 0, 0]"] ;
350 -> 352 ;
353 [label="X[11] <= -7.787\ngini = 0.219\nsamples = 8\nvalue = [7, 0, 0, 0, 0, 0, 1, 0, 0, 0]"] ;
352 -> 353 ;
354 [label="gini = 0.0\nsamples = 1\nvalue = [0, 0, 0, 0, 0, 0, 1, 0, 0, 0]"] ;
353 -> 354 ;
355 [label="gini = 0.0\nsamples = 7\nvalue = [7, 0, 0, 0, 0, 0, 0, 0, 0, 0]"] ;
353 -> 355 ;
356 [label="gini = 0.0\nsamples = 39\nvalue = [0, 0, 0, 0, 0, 0, 39, 0, 0, 0]"] ;
352 -> 356 ;
357 [label="X[19] <= -0.443\ngini = 0.153\nsamples = 957\nvalue = [80, 0, 0, 0, 0, 0, 877, 0, 0, 0]"] ;
349 -> 357 ;
358 [label="X[17] <= -0.057\ngini = 0.448\nsamples = 65\nvalue = [22, 0, 0, 0, 0, 0, 43, 0, 0, 0]"] ;
357 -> 358 ;
359 [label="X[13] <= 2.009\ngini = 0.227\nsamples = 46\nvalue = [6, 0, 0, 0, 0, 0, 40, 0, 0, 0]"] ;
358 -> 359 ;
360 [label="gini = 0.0\nsamples = 40\nvalue = [0, 0, 0, 0, 0, 0, 40, 0, 0, 0]"] ;
359 -> 360 ;
361 [label="gini = 0.0\nsamples = 6\nvalue = [6, 0, 0, 0, 0, 0, 0, 0, 0, 0]"] ;
359 -> 361 ;
362 [label="X[7] <= 0.178\ngini = 0.266\nsamples = 19\nvalue = [16, 0, 0, 0, 0, 0, 3, 0, 0, 0]"] ;
358 -> 362 ;
363 [label="gini = 0.0\nsamples = 16\nvalue = [16, 0, 0, 0, 0, 0, 0, 0, 0, 0]"] ;
362 -> 363 ;
364 [label="gini = 0.0\nsamples = 3\nvalue = [0, 0, 0, 0, 0, 0, 3, 0, 0, 0]"] ;
362 -> 364 ;
365 [label="X[19] <= -0.161\ngini = 0.122\nsamples = 892\nvalue = [58, 0, 0, 0, 0, 0, 834, 0, 0, 0]"] ;
357 -> 365 ;
366 [label="X[7] <= -2.303\ngini = 0.114\nsamples = 888\nvalue = [54, 0, 0, 0, 0, 0, 834, 0, 0, 0]"] ;
365 -> 366 ;
367 [label="gini = 0.0\nsamples = 4\nvalue = [4, 0, 0, 0, 0, 0, 0, 0, 0, 0]"] ;
366 -> 367 ;
368 [label="X[6] <= -7.43\ngini = 0.107\nsamples = 884\nvalue = [50, 0, 0, 0, 0, 0, 834, 0, 0, 0]"] ;
366 -> 368 ;
369 [label="X[20] <= 31.502\ngini = 0.103\nsamples = 882\nvalue = [48, 0, 0, 0, 0, 0, 834, 0, 0, 0]"] ;
368 -> 369 ;
370 [label="X[17] <= -0.169\ngini = 0.099\nsamples = 880\nvalue = [46, 0, 0, 0, 0, 0, 834, 0, 0, 0]"] ;
369 -> 370 ;
371 [label="X[16] <= 1.113\ngini = 0.017\nsamples = 468\nvalue = [4, 0, 0, 0, 0, 0, 464, 0, 0, 0]"] ;
370 -> 371 ;
372 [label="X[8] <= -0.611\ngini = 0.355\nsamples = 13\nvalue = [3, 0, 0, 0, 0, 0, 10, 0, 0, 0]"] ;
371 -> 372 ;
373 [label="gini = 0.0\nsamples = 3\nvalue = [3, 0, 0, 0, 0, 0, 0, 0, 0, 0]"] ;
372 -> 373 ;
374 [label="gini = 0.0\nsamples = 10\nvalue = [0, 0, 0, 0, 0, 0, 10, 0, 0, 0]"] ;
372 -> 374 ;
375 [label="X[13] <= 2.539\ngini = 0.004\nsamples = 455\nvalue = [1, 0, 0, 0, 0, 0, 454, 0, 0, 0]"] ;
371 -> 375 ;
376 [label="gini = 0.0\nsamples = 450\nvalue = [0, 0, 0, 0, 0, 0, 450, 0, 0, 0]"] ;
375 -> 376 ;
377 [label="X[13] <= 2.59\ngini = 0.32\nsamples = 5\nvalue = [1, 0, 0, 0, 0, 0, 4, 0, 0, 0]"] ;
375 -> 377 ;
378 [label="gini = 0.0\nsamples = 1\nvalue = [1, 0, 0, 0, 0, 0, 0, 0, 0, 0]"] ;
377 -> 378 ;
379 [label="gini = 0.0\nsamples = 4\nvalue = [0, 0, 0, 0, 0, 0, 4, 0, 0, 0]"] ;
377 -> 379 ;
380 [label="X[8] <= -0.578\ngini = 0.183\nsamples = 412\nvalue = [42, 0, 0, 0, 0, 0, 370, 0, 0, 0]"] ;
370 -> 380 ;
381 [label="X[14] <= -1.905\ngini = 0.094\nsamples = 303\nvalue = [15, 0, 0, 0, 0, 0, 288, 0, 0, 0]"] ;
380 -> 381 ;
382 [label="X[16] <= 1.073\ngini = 0.061\nsamples = 286\nvalue = [9, 0, 0, 0, 0, 0, 277, 0, 0, 0]"] ;
381 -> 382 ;
383 [label="gini = 0.0\nsamples = 1\nvalue = [1, 0, 0, 0, 0, 0, 0, 0, 0, 0]"] ;
382 -> 383 ;
384 [label="X[8] <= -0.622\ngini = 0.055\nsamples = 285\nvalue = [8, 0, 0, 0, 0, 0, 277, 0, 0, 0]"] ;
382 -> 384 ;
385 [label="X[3] <= -0.14\ngini = 0.444\nsamples = 9\nvalue = [3, 0, 0, 0, 0, 0, 6, 0, 0, 0]"] ;
384 -> 385 ;
386 [label="gini = 0.0\nsamples = 6\nvalue = [0, 0, 0, 0, 0, 0, 6, 0, 0, 0]"] ;
385 -> 386 ;
387 [label="gini = 0.0\nsamples = 3\nvalue = [3, 0, 0, 0, 0, 0, 0, 0, 0, 0]"] ;
385 -> 387 ;
388 [label="X[2] <= 0.695\ngini = 0.036\nsamples = 276\nvalue = [5, 0, 0, 0, 0, 0, 271, 0, 0, 0]"] ;
384 -> 388 ;
389 [label="X[16] <= 3.441\ngini = 0.029\nsamples = 274\nvalue = [4, 0, 0, 0, 0, 0, 270, 0, 0, 0]"] ;
388 -> 389 ;
390 [label="X[16] <= 1.229\ngini = 0.022\nsamples = 270\nvalue = [3, 0, 0, 0, 0, 0, 267, 0, 0, 0]"] ;
389 -> 390 ;
391 [label="X[14] <= -2.356\ngini = 0.278\nsamples = 6\nvalue = [1, 0, 0, 0, 0, 0, 5, 0, 0, 0]"] ;
390 -> 391 ;
392 [label="gini = 0.0\nsamples = 5\nvalue = [0, 0, 0, 0, 0, 0, 5, 0, 0, 0]"] ;
391 -> 392 ;
393 [label="gini = 0.0\nsamples = 1\nvalue = [1, 0, 0, 0, 0, 0, 0, 0, 0, 0]"] ;
391 -> 393 ;
394 [label="X[18] <= -1.073\ngini = 0.015\nsamples = 264\nvalue = [2, 0, 0, 0, 0, 0, 262, 0, 0, 0]"] ;
390 -> 394 ;
395 [label="X[19] <= -0.365\ngini = 0.105\nsamples = 36\nvalue = [2, 0, 0, 0, 0, 0, 34, 0, 0, 0]"] ;
394 -> 395 ;
396 [label="X[2] <= 0.176\ngini = 0.48\nsamples = 5\nvalue = [2, 0, 0, 0, 0, 0, 3, 0, 0, 0]"] ;
395 -> 396 ;
397 [label="gini = 0.0\nsamples = 3\nvalue = [0, 0, 0, 0, 0, 0, 3, 0, 0, 0]"] ;
396 -> 397 ;
398 [label="gini = 0.0\nsamples = 2\nvalue = [2, 0, 0, 0, 0, 0, 0, 0, 0, 0]"] ;
396 -> 398 ;
399 [label="gini = 0.0\nsamples = 31\nvalue = [0, 0, 0, 0, 0, 0, 31, 0, 0, 0]"] ;
395 -> 399 ;
400 [label="gini = 0.0\nsamples = 228\nvalue = [0, 0, 0, 0, 0, 0, 228, 0, 0, 0]"] ;
394 -> 400 ;
401 [label="X[20] <= -4.416\ngini = 0.375\nsamples = 4\nvalue = [1, 0, 0, 0, 0, 0, 3, 0, 0, 0]"] ;
389 -> 401 ;
402 [label="gini = 0.0\nsamples = 3\nvalue = [0, 0, 0, 0, 0, 0, 3, 0, 0, 0]"] ;
401 -> 402 ;
403 [label="gini = 0.0\nsamples = 1\nvalue = [1, 0, 0, 0, 0, 0, 0, 0, 0, 0]"] ;
401 -> 403 ;
404 [label="X[20] <= 1.149\ngini = 0.5\nsamples = 2\nvalue = [1, 0, 0, 0, 0, 0, 1, 0, 0, 0]"] ;
388 -> 404 ;
405 [label="gini = 0.0\nsamples = 1\nvalue = [1, 0, 0, 0, 0, 0, 0, 0, 0, 0]"] ;
404 -> 405 ;
406 [label="gini = 0.0\nsamples = 1\nvalue = [0, 0, 0, 0, 0, 0, 1, 0, 0, 0]"] ;
404 -> 406 ;
407 [label="X[17] <= -0.078\ngini = 0.457\nsamples = 17\nvalue = [6, 0, 0, 0, 0, 0, 11, 0, 0, 0]"] ;
381 -> 407 ;
408 [label="gini = 0.0\nsamples = 10\nvalue = [0, 0, 0, 0, 0, 0, 10, 0, 0, 0]"] ;
407 -> 408 ;
409 [label="X[4] <= 0.333\ngini = 0.245\nsamples = 7\nvalue = [6, 0, 0, 0, 0, 0, 1, 0, 0, 0]"] ;
407 -> 409 ;
410 [label="gini = 0.0\nsamples = 6\nvalue = [6, 0, 0, 0, 0, 0, 0, 0, 0, 0]"] ;
409 -> 410 ;
411 [label="gini = 0.0\nsamples = 1\nvalue = [0, 0, 0, 0, 0, 0, 1, 0, 0, 0]"] ;
409 -> 411 ;
412 [label="X[3] <= 0.042\ngini = 0.373\nsamples = 109\nvalue = [27, 0, 0, 0, 0, 0, 82, 0, 0, 0]"] ;
380 -> 412 ;
413 [label="X[5] <= -0.878\ngini = 0.064\nsamples = 60\nvalue = [2, 0, 0, 0, 0, 0, 58, 0, 0, 0]"] ;
412 -> 413 ;
414 [label="X[4] <= -0.029\ngini = 0.444\nsamples = 3\nvalue = [2, 0, 0, 0, 0, 0, 1, 0, 0, 0]"] ;
413 -> 414 ;
415 [label="gini = 0.0\nsamples = 2\nvalue = [2, 0, 0, 0, 0, 0, 0, 0, 0, 0]"] ;
414 -> 415 ;
416 [label="gini = 0.0\nsamples = 1\nvalue = [0, 0, 0, 0, 0, 0, 1, 0, 0, 0]"] ;
414 -> 416 ;
417 [label="gini = 0.0\nsamples = 57\nvalue = [0, 0, 0, 0, 0, 0, 57, 0, 0, 0]"] ;
413 -> 417 ;
418 [label="X[10] <= -0.426\ngini = 0.5\nsamples = 49\nvalue = [25, 0, 0, 0, 0, 0, 24, 0, 0, 0]"] ;
412 -> 418 ;
419 [label="X[1] <= -0.046\ngini = 0.397\nsamples = 33\nvalue = [24, 0, 0, 0, 0, 0, 9, 0, 0, 0]"] ;
418 -> 419 ;
420 [label="X[21] <= 31.393\ngini = 0.077\nsamples = 25\nvalue = [24, 0, 0, 0, 0, 0, 1, 0, 0, 0]"] ;
419 -> 420 ;
421 [label="gini = 0.0\nsamples = 24\nvalue = [24, 0, 0, 0, 0, 0, 0, 0, 0, 0]"] ;
420 -> 421 ;
422 [label="gini = 0.0\nsamples = 1\nvalue = [0, 0, 0, 0, 0, 0, 1, 0, 0, 0]"] ;
420 -> 422 ;
423 [label="gini = 0.0\nsamples = 8\nvalue = [0, 0, 0, 0, 0, 0, 8, 0, 0, 0]"] ;
419 -> 423 ;
424 [label="X[5] <= 0.282\ngini = 0.117\nsamples = 16\nvalue = [1, 0, 0, 0, 0, 0, 15, 0, 0, 0]"] ;
418 -> 424 ;
425 [label="gini = 0.0\nsamples = 15\nvalue = [0, 0, 0, 0, 0, 0, 15, 0, 0, 0]"] ;
424 -> 425 ;
426 [label="gini = 0.0\nsamples = 1\nvalue = [1, 0, 0, 0, 0, 0, 0, 0, 0, 0]"] ;
424 -> 426 ;
427 [label="gini = 0.0\nsamples = 2\nvalue = [2, 0, 0, 0, 0, 0, 0, 0, 0, 0]"] ;
369 -> 427 ;
428 [label="gini = 0.0\nsamples = 2\nvalue = [2, 0, 0, 0, 0, 0, 0, 0, 0, 0]"] ;
368 -> 428 ;
429 [label="gini = 0.0\nsamples = 4\nvalue = [4, 0, 0, 0, 0, 0, 0, 0, 0, 0]"] ;
365 -> 429 ;
430 [label="X[7] <= 1.844\ngini = 0.437\nsamples = 31\nvalue = [21, 0, 0, 0, 0, 0, 10, 0, 0, 0]"] ;
344 -> 430 ;
431 [label="X[2] <= -0.626\ngini = 0.087\nsamples = 22\nvalue = [21, 0, 0, 0, 0, 0, 1, 0, 0, 0]"] ;
430 -> 431 ;
432 [label="gini = 0.0\nsamples = 1\nvalue = [0, 0, 0, 0, 0, 0, 1, 0, 0, 0]"] ;
431 -> 432 ;
433 [label="gini = 0.0\nsamples = 21\nvalue = [21, 0, 0, 0, 0, 0, 0, 0, 0, 0]"] ;
431 -> 433 ;
434 [label="gini = 0.0\nsamples = 9\nvalue = [0, 0, 0, 0, 0, 0, 9, 0, 0, 0]"] ;
430 -> 434 ;
435 [label="X[10] <= -0.555\ngini = 0.179\nsamples = 31\nvalue = [28, 0, 0, 0, 0, 2, 1, 0, 0, 0]"] ;
343 -> 435 ;
436 [label="X[16] <= 1.824\ngini = 0.444\nsamples = 3\nvalue = [0, 0, 0, 0, 0, 2, 1, 0, 0, 0]"] ;
435 -> 436 ;
437 [label="gini = 0.0\nsamples = 1\nvalue = [0, 0, 0, 0, 0, 0, 1, 0, 0, 0]"] ;
436 -> 437 ;
438 [label="gini = 0.0\nsamples = 2\nvalue = [0, 0, 0, 0, 0, 2, 0, 0, 0, 0]"] ;
436 -> 438 ;
439 [label="gini = 0.0\nsamples = 28\nvalue = [28, 0, 0, 0, 0, 0, 0, 0, 0, 0]"] ;
435 -> 439 ;
440 [label="X[7] <= 1.366\ngini = 0.522\nsamples = 2067\nvalue = [1207, 0, 0, 0, 0, 87, 13, 760, 0, 0]"] ;
314 -> 440 ;
441 [label="X[9] <= -0.943\ngini = 0.216\nsamples = 1018\nvalue = [897, 0, 0, 0, 0, 83, 10, 28, 0, 0]"] ;
440 -> 441 ;
442 [label="X[8] <= -0.662\ngini = 0.5\nsamples = 160\nvalue = [79, 0, 0, 0, 0, 81, 0, 0, 0, 0]"] ;
441 -> 442 ;
443 [label="X[10] <= 0.187\ngini = 0.432\nsamples = 111\nvalue = [76, 0, 0, 0, 0, 35, 0, 0, 0, 0]"] ;
442 -> 443 ;
444 [label="X[9] <= -1.081\ngini = 0.415\nsamples = 34\nvalue = [10, 0, 0, 0, 0, 24, 0, 0, 0, 0]"] ;
443 -> 444 ;
445 [label="gini = 0.0\nsamples = 24\nvalue = [0, 0, 0, 0, 0, 24, 0, 0, 0, 0]"] ;
444 -> 445 ;
446 [label="gini = 0.0\nsamples = 10\nvalue = [10, 0, 0, 0, 0, 0, 0, 0, 0, 0]"] ;
444 -> 446 ;
447 [label="X[8] <= -0.792\ngini = 0.245\nsamples = 77\nvalue = [66, 0, 0, 0, 0, 11, 0, 0, 0, 0]"] ;
443 -> 447 ;
448 [label="X[13] <= 9.063\ngini = 0.083\nsamples = 69\nvalue = [66, 0, 0, 0, 0, 3, 0, 0, 0, 0]"] ;
447 -> 448 ;
449 [label="gini = 0.0\nsamples = 61\nvalue = [61, 0, 0, 0, 0, 0, 0, 0, 0, 0]"] ;
448 -> 449 ;
450 [label="X[0] <= -8.378\ngini = 0.469\nsamples = 8\nvalue = [5, 0, 0, 0, 0, 3, 0, 0, 0, 0]"] ;
448 -> 450 ;
451 [label="gini = 0.0\nsamples = 5\nvalue = [5, 0, 0, 0, 0, 0, 0, 0, 0, 0]"] ;
450 -> 451 ;
452 [label="gini = 0.0\nsamples = 3\nvalue = [0, 0, 0, 0, 0, 3, 0, 0, 0, 0]"] ;
450 -> 452 ;
453 [label="gini = 0.0\nsamples = 8\nvalue = [0, 0, 0, 0, 0, 8, 0, 0, 0, 0]"] ;
447 -> 453 ;
454 [label="X[12] <= -50.844\ngini = 0.115\nsamples = 49\nvalue = [3, 0, 0, 0, 0, 46, 0, 0, 0, 0]"] ;
442 -> 454 ;
455 [label="gini = 0.0\nsamples = 3\nvalue = [3, 0, 0, 0, 0, 0, 0, 0, 0, 0]"] ;
454 -> 455 ;
456 [label="gini = 0.0\nsamples = 46\nvalue = [0, 0, 0, 0, 0, 46, 0, 0, 0, 0]"] ;
454 -> 456 ;
457 [label="X[16] <= 6.909\ngini = 0.09\nsamples = 858\nvalue = [818, 0, 0, 0, 0, 2, 10, 28, 0, 0]"] ;
441 -> 457 ;
458 [label="X[16] <= 5.506\ngini = 0.057\nsamples = 826\nvalue = [802, 0, 0, 0, 0, 2, 10, 12, 0, 0]"] ;
457 -> 458 ;
459 [label="X[10] <= -0.296\ngini = 0.04\nsamples = 781\nvalue = [765, 0, 0, 0, 0, 2, 10, 4, 0, 0]"] ;
458 -> 459 ;
460 [label="X[4] <= 0.142\ngini = 0.206\nsamples = 105\nvalue = [93, 0, 0, 0, 0, 2, 10, 0, 0, 0]"] ;
459 -> 460 ;
461 [label="X[7] <= -5.428\ngini = 0.046\nsamples = 84\nvalue = [82, 0, 0, 0, 0, 2, 0, 0, 0, 0]"] ;
460 -> 461 ;
462 [label="gini = 0.0\nsamples = 2\nvalue = [0, 0, 0, 0, 0, 2, 0, 0, 0, 0]"] ;
461 -> 462 ;
463 [label="gini = 0.0\nsamples = 82\nvalue = [82, 0, 0, 0, 0, 0, 0, 0, 0, 0]"] ;
461 -> 463 ;
464 [label="X[11] <= -3.784\ngini = 0.499\nsamples = 21\nvalue = [11, 0, 0, 0, 0, 0, 10, 0, 0, 0]"] ;
460 -> 464 ;
465 [label="X[3] <= 0.291\ngini = 0.278\nsamples = 12\nvalue = [2, 0, 0, 0, 0, 0, 10, 0, 0, 0]"] ;
464 -> 465 ;
466 [label="gini = 0.0\nsamples = 10\nvalue = [0, 0, 0, 0, 0, 0, 10, 0, 0, 0]"] ;
465 -> 466 ;
467 [label="gini = 0.0\nsamples = 2\nvalue = [2, 0, 0, 0, 0, 0, 0, 0, 0, 0]"] ;
465 -> 467 ;
468 [label="gini = 0.0\nsamples = 9\nvalue = [9, 0, 0, 0, 0, 0, 0, 0, 0, 0]"] ;
464 -> 468 ;
469 [label="X[7] <= 1.253\ngini = 0.012\nsamples = 676\nvalue = [672, 0, 0, 0, 0, 0, 0, 4, 0, 0]"] ;
459 -> 469 ;
470 [label="gini = 0.0\nsamples = 613\nvalue = [613, 0, 0, 0, 0, 0, 0, 0, 0, 0]"] ;
469 -> 470 ;
471 [label="X[17] <= -0.69\ngini = 0.119\nsamples = 63\nvalue = [59, 0, 0, 0, 0, 0, 0, 4, 0, 0]"] ;
469 -> 471 ;
472 [label="X[10] <= -0.239\ngini = 0.444\nsamples = 6\nvalue = [2, 0, 0, 0, 0, 0, 0, 4, 0, 0]"] ;
471 -> 472 ;
473 [label="gini = 0.0\nsamples = 4\nvalue = [0, 0, 0, 0, 0, 0, 0, 4, 0, 0]"] ;
472 -> 473 ;
474 [label="gini = 0.0\nsamples = 2\nvalue = [2, 0, 0, 0, 0, 0, 0, 0, 0, 0]"] ;
472 -> 474 ;
475 [label="gini = 0.0\nsamples = 57\nvalue = [57, 0, 0, 0, 0, 0, 0, 0, 0, 0]"] ;
471 -> 475 ;
476 [label="X[7] <= 0.807\ngini = 0.292\nsamples = 45\nvalue = [37, 0, 0, 0, 0, 0, 0, 8, 0, 0]"] ;
458 -> 476 ;
477 [label="gini = 0.0\nsamples = 34\nvalue = [34, 0, 0, 0, 0, 0, 0, 0, 0, 0]"] ;
476 -> 477 ;
478 [label="X[18] <= -0.917\ngini = 0.397\nsamples = 11\nvalue = [3, 0, 0, 0, 0, 0, 0, 8, 0, 0]"] ;
476 -> 478 ;
479 [label="gini = 0.0\nsamples = 3\nvalue = [3, 0, 0, 0, 0, 0, 0, 0, 0, 0]"] ;
478 -> 479 ;
480 [label="gini = 0.0\nsamples = 8\nvalue = [0, 0, 0, 0, 0, 0, 0, 8, 0, 0]"] ;
478 -> 480 ;
481 [label="X[5] <= 0.497\ngini = 0.5\nsamples = 32\nvalue = [16, 0, 0, 0, 0, 0, 0, 16, 0, 0]"] ;
457 -> 481 ;
482 [label="X[5] <= -0.013\ngini = 0.363\nsamples = 21\nvalue = [5, 0, 0, 0, 0, 0, 0, 16, 0, 0]"] ;
481 -> 482 ;
483 [label="gini = 0.0\nsamples = 5\nvalue = [5, 0, 0, 0, 0, 0, 0, 0, 0, 0]"] ;
482 -> 483 ;
484 [label="gini = 0.0\nsamples = 16\nvalue = [0, 0, 0, 0, 0, 0, 0, 16, 0, 0]"] ;
482 -> 484 ;
485 [label="gini = 0.0\nsamples = 11\nvalue = [11, 0, 0, 0, 0, 0, 0, 0, 0, 0]"] ;
481 -> 485 ;
486 [label="X[17] <= -0.63\ngini = 0.426\nsamples = 1049\nvalue = [310, 0, 0, 0, 0, 4, 3, 732, 0, 0]"] ;
440 -> 486 ;
487 [label="X[10] <= -0.167\ngini = 0.204\nsamples = 769\nvalue = [84, 0, 0, 0, 0, 4, 0, 681, 0, 0]"] ;
486 -> 487 ;
488 [label="X[10] <= -0.262\ngini = 0.151\nsamples = 739\nvalue = [61, 0, 0, 0, 0, 0, 0, 678, 0, 0]"] ;
487 -> 488 ;
489 [label="X[20] <= -16.945\ngini = 0.493\nsamples = 43\nvalue = [19, 0, 0, 0, 0, 0, 0, 24, 0, 0]"] ;
488 -> 489 ;
490 [label="gini = 0.0\nsamples = 23\nvalue = [0, 0, 0, 0, 0, 0, 0, 23, 0, 0]"] ;
489 -> 490 ;
491 [label="X[13] <= -0.02\ngini = 0.095\nsamples = 20\nvalue = [19, 0, 0, 0, 0, 0, 0, 1, 0, 0]"] ;
489 -> 491 ;
492 [label="gini = 0.0\nsamples = 1\nvalue = [0, 0, 0, 0, 0, 0, 0, 1, 0, 0]"] ;
491 -> 492 ;
493 [label="gini = 0.0\nsamples = 19\nvalue = [19, 0, 0, 0, 0, 0, 0, 0, 0, 0]"] ;
491 -> 493 ;
494 [label="X[13] <= -1.21\ngini = 0.113\nsamples = 696\nvalue = [42, 0, 0, 0, 0, 0, 0, 654, 0, 0]"] ;
488 -> 494 ;
495 [label="gini = 0.0\nsamples = 6\nvalue = [6, 0, 0, 0, 0, 0, 0, 0, 0, 0]"] ;
494 -> 495 ;
496 [label="X[12] <= 2.707\ngini = 0.099\nsamples = 690\nvalue = [36, 0, 0, 0, 0, 0, 0, 654, 0, 0]"] ;
494 -> 496 ;
497 [label="X[9] <= -0.81\ngini = 0.089\nsamples = 686\nvalue = [32, 0, 0, 0, 0, 0, 0, 654, 0, 0]"] ;
496 -> 497 ;
498 [label="X[2] <= 0.712\ngini = 0.081\nsamples = 683\nvalue = [29, 0, 0, 0, 0, 0, 0, 654, 0, 0]"] ;
497 -> 498 ;
499 [label="X[11] <= -7.539\ngini = 0.066\nsamples = 669\nvalue = [23, 0, 0, 0, 0, 0, 0, 646, 0, 0]"] ;
498 -> 499 ;
500 [label="gini = 0.0\nsamples = 2\nvalue = [2, 0, 0, 0, 0, 0, 0, 0, 0, 0]"] ;
499 -> 500 ;
501 [label="X[15] <= -8.01\ngini = 0.061\nsamples = 667\nvalue = [21, 0, 0, 0, 0, 0, 0, 646, 0, 0]"] ;
499 -> 501 ;
502 [label="X[22] <= -34.521\ngini = 0.028\nsamples = 570\nvalue = [8, 0, 0, 0, 0, 0, 0, 562, 0, 0]"] ;
501 -> 502 ;
503 [label="gini = 0.0\nsamples = 1\nvalue = [1, 0, 0, 0, 0, 0, 0, 0, 0, 0]"] ;
502 -> 503 ;
504 [label="X[22] <= -30.074\ngini = 0.024\nsamples = 569\nvalue = [7, 0, 0, 0, 0, 0, 0, 562, 0, 0]"] ;
502 -> 504 ;
505 [label="X[10] <= -0.231\ngini = 0.278\nsamples = 6\nvalue = [1, 0, 0, 0, 0, 0, 0, 5, 0, 0]"] ;
504 -> 505 ;
506 [label="gini = 0.0\nsamples = 1\nvalue = [1, 0, 0, 0, 0, 0, 0, 0, 0, 0]"] ;
505 -> 506 ;
507 [label="gini = 0.0\nsamples = 5\nvalue = [0, 0, 0, 0, 0, 0, 0, 5, 0, 0]"] ;
505 -> 507 ;
508 [label="X[0] <= -9.237\ngini = 0.021\nsamples = 563\nvalue = [6, 0, 0, 0, 0, 0, 0, 557, 0, 0]"] ;
504 -> 508 ;
509 [label="X[2] <= 0.539\ngini = 0.018\nsamples = 558\nvalue = [5, 0, 0, 0, 0, 0, 0, 553, 0, 0]"] ;
508 -> 509 ;
510 [label="X[12] <= 2.231\ngini = 0.008\nsamples = 507\nvalue = [2, 0, 0, 0, 0, 0, 0, 505, 0, 0]"] ;
509 -> 510 ;
511 [label="X[12] <= 1.49\ngini = 0.004\nsamples = 497\nvalue = [1, 0, 0, 0, 0, 0, 0, 496, 0, 0]"] ;
510 -> 511 ;
512 [label="gini = 0.0\nsamples = 457\nvalue = [0, 0, 0, 0, 0, 0, 0, 457, 0, 0]"] ;
511 -> 512 ;
513 [label="X[12] <= 1.494\ngini = 0.049\nsamples = 40\nvalue = [1, 0, 0, 0, 0, 0, 0, 39, 0, 0]"] ;
511 -> 513 ;
514 [label="gini = 0.0\nsamples = 1\nvalue = [1, 0, 0, 0, 0, 0, 0, 0, 0, 0]"] ;
513 -> 514 ;
515 [label="gini = 0.0\nsamples = 39\nvalue = [0, 0, 0, 0, 0, 0, 0, 39, 0, 0]"] ;
513 -> 515 ;
516 [label="X[12] <= 2.245\ngini = 0.18\nsamples = 10\nvalue = [1, 0, 0, 0, 0, 0, 0, 9, 0, 0]"] ;
510 -> 516 ;
517 [label="gini = 0.0\nsamples = 1\nvalue = [1, 0, 0, 0, 0, 0, 0, 0, 0, 0]"] ;
516 -> 517 ;
518 [label="gini = 0.0\nsamples = 9\nvalue = [0, 0, 0, 0, 0, 0, 0, 9, 0, 0]"] ;
516 -> 518 ;
519 [label="X[13] <= -0.445\ngini = 0.111\nsamples = 51\nvalue = [3, 0, 0, 0, 0, 0, 0, 48, 0, 0]"] ;
509 -> 519 ;
520 [label="gini = 0.0\nsamples = 1\nvalue = [1, 0, 0, 0, 0, 0, 0, 0, 0, 0]"] ;
519 -> 520 ;
521 [label="X[2] <= 0.542\ngini = 0.077\nsamples = 50\nvalue = [2, 0, 0, 0, 0, 0, 0, 48, 0, 0]"] ;
519 -> 521 ;
522 [label="gini = 0.0\nsamples = 1\nvalue = [1, 0, 0, 0, 0, 0, 0, 0, 0, 0]"] ;
521 -> 522 ;
523 [label="X[15] <= -8.235\ngini = 0.04\nsamples = 49\nvalue = [1, 0, 0, 0, 0, 0, 0, 48, 0, 0]"] ;
521 -> 523 ;
524 [label="gini = 0.0\nsamples = 41\nvalue = [0, 0, 0, 0, 0, 0, 0, 41, 0, 0]"] ;
523 -> 524 ;
525 [label="X[15] <= -8.209\ngini = 0.219\nsamples = 8\nvalue = [1, 0, 0, 0, 0, 0, 0, 7, 0, 0]"] ;
523 -> 525 ;
526 [label="gini = 0.0\nsamples = 1\nvalue = [1, 0, 0, 0, 0, 0, 0, 0, 0, 0]"] ;
525 -> 526 ;
527 [label="gini = 0.0\nsamples = 7\nvalue = [0, 0, 0, 0, 0, 0, 0, 7, 0, 0]"] ;
525 -> 527 ;
528 [label="X[8] <= -0.565\ngini = 0.32\nsamples = 5\nvalue = [1, 0, 0, 0, 0, 0, 0, 4, 0, 0]"] ;
508 -> 528 ;
529 [label="gini = 0.0\nsamples = 4\nvalue = [0, 0, 0, 0, 0, 0, 0, 4, 0, 0]"] ;
528 -> 529 ;
530 [label="gini = 0.0\nsamples = 1\nvalue = [1, 0, 0, 0, 0, 0, 0, 0, 0, 0]"] ;
528 -> 530 ;
531 [label="X[19] <= -0.112\ngini = 0.232\nsamples = 97\nvalue = [13, 0, 0, 0, 0, 0, 0, 84, 0, 0]"] ;
501 -> 531 ;
532 [label="gini = 0.0\nsamples = 12\nvalue = [12, 0, 0, 0, 0, 0, 0, 0, 0, 0]"] ;
531 -> 532 ;
533 [label="X[6] <= -9.366\ngini = 0.023\nsamples = 85\nvalue = [1, 0, 0, 0, 0, 0, 0, 84, 0, 0]"] ;
531 -> 533 ;
534 [label="gini = 0.0\nsamples = 82\nvalue = [0, 0, 0, 0, 0, 0, 0, 82, 0, 0]"] ;
533 -> 534 ;
535 [label="X[4] <= 0.366\ngini = 0.444\nsamples = 3\nvalue = [1, 0, 0, 0, 0, 0, 0, 2, 0, 0]"] ;
533 -> 535 ;
536 [label="gini = 0.0\nsamples = 2\nvalue = [0, 0, 0, 0, 0, 0, 0, 2, 0, 0]"] ;
535 -> 536 ;
537 [label="gini = 0.0\nsamples = 1\nvalue = [1, 0, 0, 0, 0, 0, 0, 0, 0, 0]"] ;
535 -> 537 ;
538 [label="X[17] <= -0.72\ngini = 0.49\nsamples = 14\nvalue = [6, 0, 0, 0, 0, 0, 0, 8, 0, 0]"] ;
498 -> 538 ;
539 [label="X[6] <= -9.488\ngini = 0.245\nsamples = 7\nvalue = [6, 0, 0, 0, 0, 0, 0, 1, 0, 0]"] ;
538 -> 539 ;
540 [label="gini = 0.0\nsamples = 6\nvalue = [6, 0, 0, 0, 0, 0, 0, 0, 0, 0]"] ;
539 -> 540 ;
541 [label="gini = 0.0\nsamples = 1\nvalue = [0, 0, 0, 0, 0, 0, 0, 1, 0, 0]"] ;
539 -> 541 ;
542 [label="gini = 0.0\nsamples = 7\nvalue = [0, 0, 0, 0, 0, 0, 0, 7, 0, 0]"] ;
538 -> 542 ;
543 [label="gini = 0.0\nsamples = 3\nvalue = [3, 0, 0, 0, 0, 0, 0, 0, 0, 0]"] ;
497 -> 543 ;
544 [label="gini = 0.0\nsamples = 4\nvalue = [4, 0, 0, 0, 0, 0, 0, 0, 0, 0]"] ;
496 -> 544 ;
545 [label="X[12] <= -24.897\ngini = 0.384\nsamples = 30\nvalue = [23, 0, 0, 0, 0, 4, 0, 3, 0, 0]"] ;
487 -> 545 ;
546 [label="gini = 0.0\nsamples = 4\nvalue = [0, 0, 0, 0, 0, 4, 0, 0, 0, 0]"] ;
545 -> 546 ;
547 [label="X[18] <= -0.694\ngini = 0.204\nsamples = 26\nvalue = [23, 0, 0, 0, 0, 0, 0, 3, 0, 0]"] ;
545 -> 547 ;
548 [label="gini = 0.0\nsamples = 21\nvalue = [21, 0, 0, 0, 0, 0, 0, 0, 0, 0]"] ;
547 -> 548 ;
549 [label="X[7] <= 2.175\ngini = 0.48\nsamples = 5\nvalue = [2, 0, 0, 0, 0, 0, 0, 3, 0, 0]"] ;
547 -> 549 ;
550 [label="gini = 0.0\nsamples = 3\nvalue = [0, 0, 0, 0, 0, 0, 0, 3, 0, 0]"] ;
549 -> 550 ;
551 [label="gini = 0.0\nsamples = 2\nvalue = [2, 0, 0, 0, 0, 0, 0, 0, 0, 0]"] ;
549 -> 551 ;
552 [label="X[13] <= 0.589\ngini = 0.315\nsamples = 280\nvalue = [226, 0, 0, 0, 0, 0, 3, 51, 0, 0]"] ;
486 -> 552 ;
553 [label="X[19] <= 0.419\ngini = 0.143\nsamples = 221\nvalue = [204, 0, 0, 0, 0, 0, 2, 15, 0, 0]"] ;
552 -> 553 ;
554 [label="X[9] <= -0.863\ngini = 0.076\nsamples = 203\nvalue = [195, 0, 0, 0, 0, 0, 2, 6, 0, 0]"] ;
553 -> 554 ;
555 [label="X[7] <= 2.001\ngini = 0.653\nsamples = 7\nvalue = [3, 0, 0, 0, 0, 0, 2, 2, 0, 0]"] ;
554 -> 555 ;
556 [label="X[19] <= -0.149\ngini = 0.5\nsamples = 4\nvalue = [0, 0, 0, 0, 0, 0, 2, 2, 0, 0]"] ;
555 -> 556 ;
557 [label="gini = 0.0\nsamples = 2\nvalue = [0, 0, 0, 0, 0, 0, 2, 0, 0, 0]"] ;
556 -> 557 ;
558 [label="gini = 0.0\nsamples = 2\nvalue = [0, 0, 0, 0, 0, 0, 0, 2, 0, 0]"] ;
556 -> 558 ;
559 [label="gini = 0.0\nsamples = 3\nvalue = [3, 0, 0, 0, 0, 0, 0, 0, 0, 0]"] ;
555 -> 559 ;
560 [label="X[3] <= 0.486\ngini = 0.04\nsamples = 196\nvalue = [192, 0, 0, 0, 0, 0, 0, 4, 0, 0]"] ;
554 -> 560 ;
561 [label="X[0] <= -8.836\ngini = 0.021\nsamples = 188\nvalue = [186, 0, 0, 0, 0, 0, 0, 2, 0, 0]"] ;
560 -> 561 ;
562 [label="X[1] <= 0.418\ngini = 0.011\nsamples = 184\nvalue = [183, 0, 0, 0, 0, 0, 0, 1, 0, 0]"] ;
561 -> 562 ;
563 [label="gini = 0.0\nsamples = 172\nvalue = [172, 0, 0, 0, 0, 0, 0, 0, 0, 0]"] ;
562 -> 563 ;
564 [label="X[1] <= 0.439\ngini = 0.153\nsamples = 12\nvalue = [11, 0, 0, 0, 0, 0, 0, 1, 0, 0]"] ;
562 -> 564 ;
565 [label="gini = 0.0\nsamples = 1\nvalue = [0, 0, 0, 0, 0, 0, 0, 1, 0, 0]"] ;
564 -> 565 ;
566 [label="gini = 0.0\nsamples = 11\nvalue = [11, 0, 0, 0, 0, 0, 0, 0, 0, 0]"] ;
564 -> 566 ;
567 [label="X[8] <= -0.607\ngini = 0.375\nsamples = 4\nvalue = [3, 0, 0, 0, 0, 0, 0, 1, 0, 0]"] ;
561 -> 567 ;
568 [label="gini = 0.0\nsamples = 3\nvalue = [3, 0, 0, 0, 0, 0, 0, 0, 0, 0]"] ;
567 -> 568 ;
569 [label="gini = 0.0\nsamples = 1\nvalue = [0, 0, 0, 0, 0, 0, 0, 1, 0, 0]"] ;
567 -> 569 ;
570 [label="X[17] <= -0.563\ngini = 0.375\nsamples = 8\nvalue = [6, 0, 0, 0, 0, 0, 0, 2, 0, 0]"] ;
560 -> 570 ;
571 [label="gini = 0.0\nsamples = 2\nvalue = [0, 0, 0, 0, 0, 0, 0, 2, 0, 0]"] ;
570 -> 571 ;
572 [label="gini = 0.0\nsamples = 6\nvalue = [6, 0, 0, 0, 0, 0, 0, 0, 0, 0]"] ;
570 -> 572 ;
573 [label="X[17] <= -0.582\ngini = 0.5\nsamples = 18\nvalue = [9, 0, 0, 0, 0, 0, 0, 9, 0, 0]"] ;
553 -> 573 ;
574 [label="gini = 0.0\nsamples = 9\nvalue = [0, 0, 0, 0, 0, 0, 0, 9, 0, 0]"] ;
573 -> 574 ;
575 [label="gini = 0.0\nsamples = 9\nvalue = [9, 0, 0, 0, 0, 0, 0, 0, 0, 0]"] ;
573 -> 575 ;
576 [label="X[17] <= -0.503\ngini = 0.488\nsamples = 59\nvalue = [22, 0, 0, 0, 0, 0, 1, 36, 0, 0]"] ;
552 -> 576 ;
577 [label="gini = 0.0\nsamples = 36\nvalue = [0, 0, 0, 0, 0, 0, 0, 36, 0, 0]"] ;
576 -> 577 ;
578 [label="X[2] <= -1.263\ngini = 0.083\nsamples = 23\nvalue = [22, 0, 0, 0, 0, 0, 1, 0, 0, 0]"] ;
576 -> 578 ;
579 [label="X[22] <= -11.871\ngini = 0.5\nsamples = 2\nvalue = [1, 0, 0, 0, 0, 0, 1, 0, 0, 0]"] ;
578 -> 579 ;
580 [label="gini = 0.0\nsamples = 1\nvalue = [0, 0, 0, 0, 0, 0, 1, 0, 0, 0]"] ;
579 -> 580 ;
581 [label="gini = 0.0\nsamples = 1\nvalue = [1, 0, 0, 0, 0, 0, 0, 0, 0, 0]"] ;
579 -> 581 ;
582 [label="gini = 0.0\nsamples = 21\nvalue = [21, 0, 0, 0, 0, 0, 0, 0, 0, 0]"] ;
578 -> 582 ;
583 [label="X[19] <= -0.286\ngini = 0.426\nsamples = 6233\nvalue = [4588, 18, 0, 0, 153, 365, 32, 27, 1050, 0]"] ;
313 -> 583 ;
584 [label="X[17] <= -0.066\ngini = 0.509\nsamples = 2161\nvalue = [1124, 0, 0, 0, 0, 4, 19, 0, 1014, 0]"] ;
583 -> 584 ;
585 [label="X[14] <= -2.934\ngini = 0.481\nsamples = 1621\nvalue = [601, 0, 0, 0, 0, 0, 19, 0, 1001, 0]"] ;
584 -> 585 ;
586 [label="X[18] <= -1.005\ngini = 0.227\nsamples = 391\nvalue = [340, 0, 0, 0, 0, 0, 0, 0, 51, 0]"] ;
585 -> 586 ;
587 [label="X[7] <= -0.224\ngini = 0.498\nsamples = 105\nvalue = [56, 0, 0, 0, 0, 0, 0, 0, 49, 0]"] ;
586 -> 587 ;
588 [label="X[14] <= -3.281\ngini = 0.24\nsamples = 43\nvalue = [37, 0, 0, 0, 0, 0, 0, 0, 6, 0]"] ;
587 -> 588 ;
589 [label="gini = 0.0\nsamples = 29\nvalue = [29, 0, 0, 0, 0, 0, 0, 0, 0, 0]"] ;
588 -> 589 ;
590 [label="X[7] <= -1.42\ngini = 0.49\nsamples = 14\nvalue = [8, 0, 0, 0, 0, 0, 0, 0, 6, 0]"] ;
588 -> 590 ;
591 [label="gini = 0.0\nsamples = 6\nvalue = [6, 0, 0, 0, 0, 0, 0, 0, 0, 0]"] ;
590 -> 591 ;
592 [label="X[22] <= -28.139\ngini = 0.375\nsamples = 8\nvalue = [2, 0, 0, 0, 0, 0, 0, 0, 6, 0]"] ;
590 -> 592 ;
593 [label="gini = 0.0\nsamples = 2\nvalue = [2, 0, 0, 0, 0, 0, 0, 0, 0, 0]"] ;
592 -> 593 ;
594 [label="gini = 0.0\nsamples = 6\nvalue = [0, 0, 0, 0, 0, 0, 0, 0, 6, 0]"] ;
592 -> 594 ;
595 [label="X[13] <= -0.282\ngini = 0.425\nsamples = 62\nvalue = [19, 0, 0, 0, 0, 0, 0, 0, 43, 0]"] ;
587 -> 595 ;
596 [label="X[11] <= 8.533\ngini = 0.351\nsamples = 22\nvalue = [17, 0, 0, 0, 0, 0, 0, 0, 5, 0]"] ;
595 -> 596 ;
597 [label="X[5] <= 2.262\ngini = 0.105\nsamples = 18\nvalue = [17, 0, 0, 0, 0, 0, 0, 0, 1, 0]"] ;
596 -> 597 ;
598 [label="gini = 0.0\nsamples = 17\nvalue = [17, 0, 0, 0, 0, 0, 0, 0, 0, 0]"] ;
597 -> 598 ;
599 [label="gini = 0.0\nsamples = 1\nvalue = [0, 0, 0, 0, 0, 0, 0, 0, 1, 0]"] ;
597 -> 599 ;
600 [label="gini = 0.0\nsamples = 4\nvalue = [0, 0, 0, 0, 0, 0, 0, 0, 4, 0]"] ;
596 -> 600 ;
601 [label="X[18] <= -1.087\ngini = 0.095\nsamples = 40\nvalue = [2, 0, 0, 0, 0, 0, 0, 0, 38, 0]"] ;
595 -> 601 ;
602 [label="gini = 0.0\nsamples = 1\nvalue = [1, 0, 0, 0, 0, 0, 0, 0, 0, 0]"] ;
601 -> 602 ;
603 [label="X[8] <= -0.429\ngini = 0.05\nsamples = 39\nvalue = [1, 0, 0, 0, 0, 0, 0, 0, 38, 0]"] ;
601 -> 603 ;
604 [label="gini = 0.0\nsamples = 1\nvalue = [1, 0, 0, 0, 0, 0, 0, 0, 0, 0]"] ;
603 -> 604 ;
605 [label="gini = 0.0\nsamples = 38\nvalue = [0, 0, 0, 0, 0, 0, 0, 0, 38, 0]"] ;
603 -> 605 ;
606 [label="X[17] <= -0.14\ngini = 0.014\nsamples = 286\nvalue = [284, 0, 0, 0, 0, 0, 0, 0, 2, 0]"] ;
586 -> 606 ;
607 [label="gini = 0.0\nsamples = 268\nvalue = [268, 0, 0, 0, 0, 0, 0, 0, 0, 0]"] ;
606 -> 607 ;
608 [label="X[18] <= -1.001\ngini = 0.198\nsamples = 18\nvalue = [16, 0, 0, 0, 0, 0, 0, 0, 2, 0]"] ;
606 -> 608 ;
609 [label="gini = 0.0\nsamples = 2\nvalue = [0, 0, 0, 0, 0, 0, 0, 0, 2, 0]"] ;
608 -> 609 ;
610 [label="gini = 0.0\nsamples = 16\nvalue = [16, 0, 0, 0, 0, 0, 0, 0, 0, 0]"] ;
608 -> 610 ;
611 [label="X[8] <= -0.468\ngini = 0.358\nsamples = 1230\nvalue = [261, 0, 0, 0, 0, 0, 19, 0, 950, 0]"] ;
585 -> 611 ;
612 [label="X[9] <= -0.853\ngini = 0.459\nsamples = 64\nvalue = [43, 0, 0, 0, 0, 0, 19, 0, 2, 0]"] ;
611 -> 612 ;
613 [label="X[5] <= 0.781\ngini = 0.236\nsamples = 22\nvalue = [3, 0, 0, 0, 0, 0, 19, 0, 0, 0]"] ;
612 -> 613 ;
614 [label="gini = 0.0\nsamples = 19\nvalue = [0, 0, 0, 0, 0, 0, 19, 0, 0, 0]"] ;
613 -> 614 ;
615 [label="gini = 0.0\nsamples = 3\nvalue = [3, 0, 0, 0, 0, 0, 0, 0, 0, 0]"] ;
613 -> 615 ;
616 [label="X[16] <= 2.224\ngini = 0.091\nsamples = 42\nvalue = [40, 0, 0, 0, 0, 0, 0, 0, 2, 0]"] ;
612 -> 616 ;
617 [label="gini = 0.0\nsamples = 36\nvalue = [36, 0, 0, 0, 0, 0, 0, 0, 0, 0]"] ;
616 -> 617 ;
618 [label="X[12] <= 1.944\ngini = 0.444\nsamples = 6\nvalue = [4, 0, 0, 0, 0, 0, 0, 0, 2, 0]"] ;
616 -> 618 ;
619 [label="gini = 0.0\nsamples = 4\nvalue = [4, 0, 0, 0, 0, 0, 0, 0, 0, 0]"] ;
618 -> 619 ;
620 [label="gini = 0.0\nsamples = 2\nvalue = [0, 0, 0, 0, 0, 0, 0, 0, 2, 0]"] ;
618 -> 620 ;
621 [label="X[22] <= 31.174\ngini = 0.304\nsamples = 1166\nvalue = [218, 0, 0, 0, 0, 0, 0, 0, 948, 0]"] ;
611 -> 621 ;
622 [label="X[8] <= -0.314\ngini = 0.277\nsamples = 1133\nvalue = [188, 0, 0, 0, 0, 0, 0, 0, 945, 0]"] ;
621 -> 622 ;
623 [label="X[16] <= 3.657\ngini = 0.254\nsamples = 1111\nvalue = [166, 0, 0, 0, 0, 0, 0, 0, 945, 0]"] ;
622 -> 623 ;
624 [label="X[13] <= -5.367\ngini = 0.24\nsamples = 1098\nvalue = [153, 0, 0, 0, 0, 0, 0, 0, 945, 0]"] ;
623 -> 624 ;
625 [label="X[0] <= -7.349\ngini = 0.142\nsamples = 13\nvalue = [12, 0, 0, 0, 0, 0, 0, 0, 1, 0]"] ;
624 -> 625 ;
626 [label="gini = 0.0\nsamples = 12\nvalue = [12, 0, 0, 0, 0, 0, 0, 0, 0, 0]"] ;
625 -> 626 ;
627 [label="gini = 0.0\nsamples = 1\nvalue = [0, 0, 0, 0, 0, 0, 0, 0, 1, 0]"] ;
625 -> 627 ;
628 [label="X[8] <= -0.42\ngini = 0.226\nsamples = 1085\nvalue = [141, 0, 0, 0, 0, 0, 0, 0, 944, 0]"] ;
624 -> 628 ;
629 [label="X[17] <= -0.306\ngini = 0.423\nsamples = 138\nvalue = [42, 0, 0, 0, 0, 0, 0, 0, 96, 0]"] ;
628 -> 629 ;
630 [label="X[14] <= -1.636\ngini = 0.375\nsamples = 28\nvalue = [21, 0, 0, 0, 0, 0, 0, 0, 7, 0]"] ;
629 -> 630 ;
631 [label="gini = 0.0\nsamples = 21\nvalue = [21, 0, 0, 0, 0, 0, 0, 0, 0, 0]"] ;
630 -> 631 ;
632 [label="gini = 0.0\nsamples = 7\nvalue = [0, 0, 0, 0, 0, 0, 0, 0, 7, 0]"] ;
630 -> 632 ;
633 [label="X[22] <= -13.938\ngini = 0.309\nsamples = 110\nvalue = [21, 0, 0, 0, 0, 0, 0, 0, 89, 0]"] ;
629 -> 633 ;
634 [label="X[8] <= -0.454\ngini = 0.444\nsamples = 27\nvalue = [18, 0, 0, 0, 0, 0, 0, 0, 9, 0]"] ;
633 -> 634 ;
635 [label="gini = 0.0\nsamples = 8\nvalue = [0, 0, 0, 0, 0, 0, 0, 0, 8, 0]"] ;
634 -> 635 ;
636 [label="X[9] <= -0.837\ngini = 0.1\nsamples = 19\nvalue = [18, 0, 0, 0, 0, 0, 0, 0, 1, 0]"] ;
634 -> 636 ;
637 [label="gini = 0.0\nsamples = 1\nvalue = [0, 0, 0, 0, 0, 0, 0, 0, 1, 0]"] ;
636 -> 637 ;
638 [label="gini = 0.0\nsamples = 18\nvalue = [18, 0, 0, 0, 0, 0, 0, 0, 0, 0]"] ;
636 -> 638 ;
639 [label="X[1] <= 0.492\ngini = 0.07\nsamples = 83\nvalue = [3, 0, 0, 0, 0, 0, 0, 0, 80, 0]"] ;
633 -> 639 ;
640 [label="X[12] <= -11.577\ngini = 0.024\nsamples = 81\nvalue = [1, 0, 0, 0, 0, 0, 0, 0, 80, 0]"] ;
639 -> 640 ;
641 [label="X[3] <= -0.237\ngini = 0.5\nsamples = 2\nvalue = [1, 0, 0, 0, 0, 0, 0, 0, 1, 0]"] ;
640 -> 641 ;
642 [label="gini = 0.0\nsamples = 1\nvalue = [1, 0, 0, 0, 0, 0, 0, 0, 0, 0]"] ;
641 -> 642 ;
643 [label="gini = 0.0\nsamples = 1\nvalue = [0, 0, 0, 0, 0, 0, 0, 0, 1, 0]"] ;
641 -> 643 ;
644 [label="gini = 0.0\nsamples = 79\nvalue = [0, 0, 0, 0, 0, 0, 0, 0, 79, 0]"] ;
640 -> 644 ;
645 [label="gini = 0.0\nsamples = 2\nvalue = [2, 0, 0, 0, 0, 0, 0, 0, 0, 0]"] ;
639 -> 645 ;
646 [label="X[2] <= 0.7\ngini = 0.187\nsamples = 947\nvalue = [99, 0, 0, 0, 0, 0, 0, 0, 848, 0]"] ;
628 -> 646 ;
647 [label="X[16] <= 0.321\ngini = 0.177\nsamples = 938\nvalue = [92, 0, 0, 0, 0, 0, 0, 0, 846, 0]"] ;
646 -> 647 ;
648 [label="X[11] <= 0.762\ngini = 0.468\nsamples = 51\nvalue = [19, 0, 0, 0, 0, 0, 0, 0, 32, 0]"] ;
647 -> 648 ;
649 [label="gini = 0.0\nsamples = 10\nvalue = [10, 0, 0, 0, 0, 0, 0, 0, 0, 0]"] ;
648 -> 649 ;
650 [label="X[3] <= 0.117\ngini = 0.343\nsamples = 41\nvalue = [9, 0, 0, 0, 0, 0, 0, 0, 32, 0]"] ;
648 -> 650 ;
651 [label="X[10] <= -0.488\ngini = 0.117\nsamples = 32\nvalue = [2, 0, 0, 0, 0, 0, 0, 0, 30, 0]"] ;
650 -> 651 ;
652 [label="X[0] <= -6.014\ngini = 0.062\nsamples = 31\nvalue = [1, 0, 0, 0, 0, 0, 0, 0, 30, 0]"] ;
651 -> 652 ;
653 [label="gini = 0.0\nsamples = 30\nvalue = [0, 0, 0, 0, 0, 0, 0, 0, 30, 0]"] ;
652 -> 653 ;
654 [label="gini = 0.0\nsamples = 1\nvalue = [1, 0, 0, 0, 0, 0, 0, 0, 0, 0]"] ;
652 -> 654 ;
655 [label="gini = 0.0\nsamples = 1\nvalue = [1, 0, 0, 0, 0, 0, 0, 0, 0, 0]"] ;
651 -> 655 ;
656 [label="X[6] <= -9.532\ngini = 0.346\nsamples = 9\nvalue = [7, 0, 0, 0, 0, 0, 0, 0, 2, 0]"] ;
650 -> 656 ;
657 [label="gini = 0.0\nsamples = 6\nvalue = [6, 0, 0, 0, 0, 0, 0, 0, 0, 0]"] ;
656 -> 657 ;
658 [label="X[3] <= 0.23\ngini = 0.444\nsamples = 3\nvalue = [1, 0, 0, 0, 0, 0, 0, 0, 2, 0]"] ;
656 -> 658 ;
659 [label="gini = 0.0\nsamples = 1\nvalue = [1, 0, 0, 0, 0, 0, 0, 0, 0, 0]"] ;
658 -> 659 ;
660 [label="gini = 0.0\nsamples = 2\nvalue = [0, 0, 0, 0, 0, 0, 0, 0, 2, 0]"] ;
658 -> 660 ;
661 [label="X[18] <= -1.112\ngini = 0.151\nsamples = 887\nvalue = [73, 0, 0, 0, 0, 0, 0, 0, 814, 0]"] ;
647 -> 661 ;
662 [label="gini = 0.0\nsamples = 4\nvalue = [4, 0, 0, 0, 0, 0, 0, 0, 0, 0]"] ;
661 -> 662 ;
663 [label="X[3] <= -0.136\ngini = 0.144\nsamples = 883\nvalue = [69, 0, 0, 0, 0, 0, 0, 0, 814, 0]"] ;
661 -> 663 ;
664 [label="X[1] <= -1.57\ngini = 0.059\nsamples = 463\nvalue = [14, 0, 0, 0, 0, 0, 0, 0, 449, 0]"] ;
663 -> 664 ;
665 [label="gini = 0.0\nsamples = 1\nvalue = [1, 0, 0, 0, 0, 0, 0, 0, 0, 0]"] ;
664 -> 665 ;
666 [label="X[11] <= 15.881\ngini = 0.055\nsamples = 462\nvalue = [13, 0, 0, 0, 0, 0, 0, 0, 449, 0]"] ;
664 -> 666 ;
667 [label="X[14] <= -2.783\ngini = 0.04\nsamples = 446\nvalue = [9, 0, 0, 0, 0, 0, 0, 0, 437, 0]"] ;
666 -> 667 ;
668 [label="X[13] <= -1.538\ngini = 0.245\nsamples = 21\nvalue = [3, 0, 0, 0, 0, 0, 0, 0, 18, 0]"] ;
667 -> 668 ;
669 [label="gini = 0.0\nsamples = 3\nvalue = [3, 0, 0, 0, 0, 0, 0, 0, 0, 0]"] ;
668 -> 669 ;
670 [label="gini = 0.0\nsamples = 18\nvalue = [0, 0, 0, 0, 0, 0, 0, 0, 18, 0]"] ;
668 -> 670 ;
671 [label="X[2] <= 0.648\ngini = 0.028\nsamples = 425\nvalue = [6, 0, 0, 0, 0, 0, 0, 0, 419, 0]"] ;
667 -> 671 ;
672 [label="X[5] <= 0.854\ngini = 0.024\nsamples = 420\nvalue = [5, 0, 0, 0, 0, 0, 0, 0, 415, 0]"] ;
671 -> 672 ;
673 [label="X[5] <= 0.851\ngini = 0.139\nsamples = 40\nvalue = [3, 0, 0, 0, 0, 0, 0, 0, 37, 0]"] ;
672 -> 673 ;
674 [label="X[22] <= -21.811\ngini = 0.097\nsamples = 39\nvalue = [2, 0, 0, 0, 0, 0, 0, 0, 37, 0]"] ;
673 -> 674 ;
675 [label="gini = 0.0\nsamples = 1\nvalue = [1, 0, 0, 0, 0, 0, 0, 0, 0, 0]"] ;
674 -> 675 ;
676 [label="X[22] <= 26.125\ngini = 0.051\nsamples = 38\nvalue = [1, 0, 0, 0, 0, 0, 0, 0, 37, 0]"] ;
674 -> 676 ;
677 [label="gini = 0.0\nsamples = 37\nvalue = [0, 0, 0, 0, 0, 0, 0, 0, 37, 0]"] ;
676 -> 677 ;
678 [label="gini = 0.0\nsamples = 1\nvalue = [1, 0, 0, 0, 0, 0, 0, 0, 0, 0]"] ;
676 -> 678 ;
679 [label="gini = 0.0\nsamples = 1\nvalue = [1, 0, 0, 0, 0, 0, 0, 0, 0, 0]"] ;
673 -> 679 ;
680 [label="X[16] <= 3.279\ngini = 0.01\nsamples = 380\nvalue = [2, 0, 0, 0, 0, 0, 0, 0, 378, 0]"] ;
672 -> 680 ;
681 [label="X[13] <= 1.84\ngini = 0.005\nsamples = 369\nvalue = [1, 0, 0, 0, 0, 0, 0, 0, 368, 0]"] ;
680 -> 681 ;
682 [label="gini = 0.0\nsamples = 352\nvalue = [0, 0, 0, 0, 0, 0, 0, 0, 352, 0]"] ;
681 -> 682 ;
683 [label="X[13] <= 1.859\ngini = 0.111\nsamples = 17\nvalue = [1, 0, 0, 0, 0, 0, 0, 0, 16, 0]"] ;
681 -> 683 ;
684 [label="gini = 0.0\nsamples = 1\nvalue = [1, 0, 0, 0, 0, 0, 0, 0, 0, 0]"] ;
683 -> 684 ;
685 [label="gini = 0.0\nsamples = 16\nvalue = [0, 0, 0, 0, 0, 0, 0, 0, 16, 0]"] ;
683 -> 685 ;
686 [label="X[16] <= 3.286\ngini = 0.165\nsamples = 11\nvalue = [1, 0, 0, 0, 0, 0, 0, 0, 10, 0]"] ;
680 -> 686 ;
687 [label="gini = 0.0\nsamples = 1\nvalue = [1, 0, 0, 0, 0, 0, 0, 0, 0, 0]"] ;
686 -> 687 ;
688 [label="gini = 0.0\nsamples = 10\nvalue = [0, 0, 0, 0, 0, 0, 0, 0, 10, 0]"] ;
686 -> 688 ;
689 [label="X[11] <= -0.643\ngini = 0.32\nsamples = 5\nvalue = [1, 0, 0, 0, 0, 0, 0, 0, 4, 0]"] ;
671 -> 689 ;
690 [label="gini = 0.0\nsamples = 4\nvalue = [0, 0, 0, 0, 0, 0, 0, 0, 4, 0]"] ;
689 -> 690 ;
691 [label="gini = 0.0\nsamples = 1\nvalue = [1, 0, 0, 0, 0, 0, 0, 0, 0, 0]"] ;
689 -> 691 ;
692 [label="X[2] <= -1.356\ngini = 0.375\nsamples = 16\nvalue = [4, 0, 0, 0, 0, 0, 0, 0, 12, 0]"] ;
666 -> 692 ;
693 [label="gini = 0.0\nsamples = 11\nvalue = [0, 0, 0, 0, 0, 0, 0, 0, 11, 0]"] ;
692 -> 693 ;
694 [label="X[20] <= -1.202\ngini = 0.32\nsamples = 5\nvalue = [4, 0, 0, 0, 0, 0, 0, 0, 1, 0]"] ;
692 -> 694 ;
695 [label="gini = 0.0\nsamples = 1\nvalue = [0, 0, 0, 0, 0, 0, 0, 0, 1, 0]"] ;
694 -> 695 ;
696 [label="gini = 0.0\nsamples = 4\nvalue = [4, 0, 0, 0, 0, 0, 0, 0, 0, 0]"] ;
694 -> 696 ;
697 [label="X[11] <= -8.737\ngini = 0.228\nsamples = 420\nvalue = [55, 0, 0, 0, 0, 0, 0, 0, 365, 0]"] ;
663 -> 697 ;
698 [label="X[8] <= -0.372\ngini = 0.447\nsamples = 74\nvalue = [25, 0, 0, 0, 0, 0, 0, 0, 49, 0]"] ;
697 -> 698 ;
699 [label="X[14] <= -2.524\ngini = 0.339\nsamples = 60\nvalue = [13, 0, 0, 0, 0, 0, 0, 0, 47, 0]"] ;
698 -> 699 ;
700 [label="X[18] <= -1.033\ngini = 0.415\nsamples = 17\nvalue = [12, 0, 0, 0, 0, 0, 0, 0, 5, 0]"] ;
699 -> 700 ;
701 [label="X[20] <= 5.811\ngini = 0.278\nsamples = 6\nvalue = [1, 0, 0, 0, 0, 0, 0, 0, 5, 0]"] ;
700 -> 701 ;
702 [label="gini = 0.0\nsamples = 5\nvalue = [0, 0, 0, 0, 0, 0, 0, 0, 5, 0]"] ;
701 -> 702 ;
703 [label="gini = 0.0\nsamples = 1\nvalue = [1, 0, 0, 0, 0, 0, 0, 0, 0, 0]"] ;
701 -> 703 ;
704 [label="gini = 0.0\nsamples = 11\nvalue = [11, 0, 0, 0, 0, 0, 0, 0, 0, 0]"] ;
700 -> 704 ;
705 [label="X[19] <= -0.463\ngini = 0.045\nsamples = 43\nvalue = [1, 0, 0, 0, 0, 0, 0, 0, 42, 0]"] ;
699 -> 705 ;
706 [label="X[4] <= 0.624\ngini = 0.5\nsamples = 2\nvalue = [1, 0, 0, 0, 0, 0, 0, 0, 1, 0]"] ;
705 -> 706 ;
707 [label="gini = 0.0\nsamples = 1\nvalue = [1, 0, 0, 0, 0, 0, 0, 0, 0, 0]"] ;
706 -> 707 ;
708 [label="gini = 0.0\nsamples = 1\nvalue = [0, 0, 0, 0, 0, 0, 0, 0, 1, 0]"] ;
706 -> 708 ;
709 [label="gini = 0.0\nsamples = 41\nvalue = [0, 0, 0, 0, 0, 0, 0, 0, 41, 0]"] ;
705 -> 709 ;
710 [label="X[18] <= -1.052\ngini = 0.245\nsamples = 14\nvalue = [12, 0, 0, 0, 0, 0, 0, 0, 2, 0]"] ;
698 -> 710 ;
711 [label="gini = 0.0\nsamples = 12\nvalue = [12, 0, 0, 0, 0, 0, 0, 0, 0, 0]"] ;
710 -> 711 ;
712 [label="gini = 0.0\nsamples = 2\nvalue = [0, 0, 0, 0, 0, 0, 0, 0, 2, 0]"] ;
710 -> 712 ;
713 [label="X[19] <= -0.497\ngini = 0.158\nsamples = 346\nvalue = [30, 0, 0, 0, 0, 0, 0, 0, 316, 0]"] ;
697 -> 713 ;
714 [label="X[12] <= -0.582\ngini = 0.497\nsamples = 13\nvalue = [7, 0, 0, 0, 0, 0, 0, 0, 6, 0]"] ;
713 -> 714 ;
715 [label="gini = 0.0\nsamples = 5\nvalue = [5, 0, 0, 0, 0, 0, 0, 0, 0, 0]"] ;
714 -> 715 ;
716 [label="X[22] <= 16.358\ngini = 0.375\nsamples = 8\nvalue = [2, 0, 0, 0, 0, 0, 0, 0, 6, 0]"] ;
714 -> 716 ;
717 [label="X[7] <= -0.377\ngini = 0.444\nsamples = 3\nvalue = [2, 0, 0, 0, 0, 0, 0, 0, 1, 0]"] ;
716 -> 717 ;
718 [label="gini = 0.0\nsamples = 2\nvalue = [2, 0, 0, 0, 0, 0, 0, 0, 0, 0]"] ;
717 -> 718 ;
719 [label="gini = 0.0\nsamples = 1\nvalue = [0, 0, 0, 0, 0, 0, 0, 0, 1, 0]"] ;
717 -> 719 ;
720 [label="gini = 0.0\nsamples = 5\nvalue = [0, 0, 0, 0, 0, 0, 0, 0, 5, 0]"] ;
716 -> 720 ;
721 [label="X[20] <= -15.911\ngini = 0.129\nsamples = 333\nvalue = [23, 0, 0, 0, 0, 0, 0, 0, 310, 0]"] ;
713 -> 721 ;
722 [label="X[21] <= -8.569\ngini = 0.32\nsamples = 5\nvalue = [4, 0, 0, 0, 0, 0, 0, 0, 1, 0]"] ;
721 -> 722 ;
723 [label="gini = 0.0\nsamples = 4\nvalue = [4, 0, 0, 0, 0, 0, 0, 0, 0, 0]"] ;
722 -> 723 ;
724 [label="gini = 0.0\nsamples = 1\nvalue = [0, 0, 0, 0, 0, 0, 0, 0, 1, 0]"] ;
722 -> 724 ;
725 [label="X[13] <= 3.313\ngini = 0.109\nsamples = 328\nvalue = [19, 0, 0, 0, 0, 0, 0, 0, 309, 0]"] ;
721 -> 725 ;
726 [label="X[15] <= -6.906\ngini = 0.094\nsamples = 322\nvalue = [16, 0, 0, 0, 0, 0, 0, 0, 306, 0]"] ;
725 -> 726 ;
727 [label="X[14] <= -2.819\ngini = 0.089\nsamples = 321\nvalue = [15, 0, 0, 0, 0, 0, 0, 0, 306, 0]"] ;
726 -> 727 ;
728 [label="X[2] <= -1.611\ngini = 0.444\nsamples = 6\nvalue = [2, 0, 0, 0, 0, 0, 0, 0, 4, 0]"] ;
727 -> 728 ;
729 [label="gini = 0.0\nsamples = 2\nvalue = [2, 0, 0, 0, 0, 0, 0, 0, 0, 0]"] ;
728 -> 729 ;
730 [label="gini = 0.0\nsamples = 4\nvalue = [0, 0, 0, 0, 0, 0, 0, 0, 4, 0]"] ;
728 -> 730 ;
731 [label="X[10] <= -0.528\ngini = 0.079\nsamples = 315\nvalue = [13, 0, 0, 0, 0, 0, 0, 0, 302, 0]"] ;
727 -> 731 ;
732 [label="X[19] <= -0.296\ngini = 0.011\nsamples = 188\nvalue = [1, 0, 0, 0, 0, 0, 0, 0, 187, 0]"] ;
731 -> 732 ;
733 [label="gini = 0.0\nsamples = 187\nvalue = [0, 0, 0, 0, 0, 0, 0, 0, 187, 0]"] ;
732 -> 733 ;
734 [label="gini = 0.0\nsamples = 1\nvalue = [1, 0, 0, 0, 0, 0, 0, 0, 0, 0]"] ;
732 -> 734 ;
735 [label="X[21] <= 12.476\ngini = 0.171\nsamples = 127\nvalue = [12, 0, 0, 0, 0, 0, 0, 0, 115, 0]"] ;
731 -> 735 ;
736 [label="X[18] <= -0.948\ngini = 0.059\nsamples = 98\nvalue = [3, 0, 0, 0, 0, 0, 0, 0, 95, 0]"] ;
735 -> 736 ;
737 [label="X[19] <= -0.463\ngini = 0.04\nsamples = 97\nvalue = [2, 0, 0, 0, 0, 0, 0, 0, 95, 0]"] ;
736 -> 737 ;
738 [label="gini = 0.0\nsamples = 1\nvalue = [1, 0, 0, 0, 0, 0, 0, 0, 0, 0]"] ;
737 -> 738 ;
739 [label="X[2] <= 0.622\ngini = 0.021\nsamples = 96\nvalue = [1, 0, 0, 0, 0, 0, 0, 0, 95, 0]"] ;
737 -> 739 ;
740 [label="gini = 0.0\nsamples = 94\nvalue = [0, 0, 0, 0, 0, 0, 0, 0, 94, 0]"] ;
739 -> 740 ;
741 [label="X[15] <= -8.954\ngini = 0.5\nsamples = 2\nvalue = [1, 0, 0, 0, 0, 0, 0, 0, 1, 0]"] ;
739 -> 741 ;
742 [label="gini = 0.0\nsamples = 1\nvalue = [0, 0, 0, 0, 0, 0, 0, 0, 1, 0]"] ;
741 -> 742 ;
743 [label="gini = 0.0\nsamples = 1\nvalue = [1, 0, 0, 0, 0, 0, 0, 0, 0, 0]"] ;
741 -> 743 ;
744 [label="gini = 0.0\nsamples = 1\nvalue = [1, 0, 0, 0, 0, 0, 0, 0, 0, 0]"] ;
736 -> 744 ;
745 [label="X[1] <= -0.622\ngini = 0.428\nsamples = 29\nvalue = [9, 0, 0, 0, 0, 0, 0, 0, 20, 0]"] ;
735 -> 745 ;
746 [label="X[9] <= -0.841\ngini = 0.459\nsamples = 14\nvalue = [9, 0, 0, 0, 0, 0, 0, 0, 5, 0]"] ;
745 -> 746 ;
747 [label="gini = 0.0\nsamples = 4\nvalue = [0, 0, 0, 0, 0, 0, 0, 0, 4, 0]"] ;
746 -> 747 ;
748 [label="X[17] <= -0.17\ngini = 0.18\nsamples = 10\nvalue = [9, 0, 0, 0, 0, 0, 0, 0, 1, 0]"] ;
746 -> 748 ;
749 [label="gini = 0.0\nsamples = 9\nvalue = [9, 0, 0, 0, 0, 0, 0, 0, 0, 0]"] ;
748 -> 749 ;
750 [label="gini = 0.0\nsamples = 1\nvalue = [0, 0, 0, 0, 0, 0, 0, 0, 1, 0]"] ;
748 -> 750 ;
751 [label="gini = 0.0\nsamples = 15\nvalue = [0, 0, 0, 0, 0, 0, 0, 0, 15, 0]"] ;
745 -> 751 ;
752 [label="gini = 0.0\nsamples = 1\nvalue = [1, 0, 0, 0, 0, 0, 0, 0, 0, 0]"] ;
726 -> 752 ;
753 [label="X[17] <= -0.137\ngini = 0.5\nsamples = 6\nvalue = [3, 0, 0, 0, 0, 0, 0, 0, 3, 0]"] ;
725 -> 753 ;
754 [label="gini = 0.0\nsamples = 3\nvalue = [0, 0, 0, 0, 0, 0, 0, 0, 3, 0]"] ;
753 -> 754 ;
755 [label="gini = 0.0\nsamples = 3\nvalue = [3, 0, 0, 0, 0, 0, 0, 0, 0, 0]"] ;
753 -> 755 ;
756 [label="X[4] <= -0.059\ngini = 0.346\nsamples = 9\nvalue = [7, 0, 0, 0, 0, 0, 0, 0, 2, 0]"] ;
646 -> 756 ;
757 [label="gini = 0.0\nsamples = 7\nvalue = [7, 0, 0, 0, 0, 0, 0, 0, 0, 0]"] ;
756 -> 757 ;
758 [label="gini = 0.0\nsamples = 2\nvalue = [0, 0, 0, 0, 0, 0, 0, 0, 2, 0]"] ;
756 -> 758 ;
759 [label="gini = 0.0\nsamples = 13\nvalue = [13, 0, 0, 0, 0, 0, 0, 0, 0, 0]"] ;
623 -> 759 ;
760 [label="gini = 0.0\nsamples = 22\nvalue = [22, 0, 0, 0, 0, 0, 0, 0, 0, 0]"] ;
622 -> 760 ;
761 [label="X[9] <= -0.788\ngini = 0.165\nsamples = 33\nvalue = [30, 0, 0, 0, 0, 0, 0, 0, 3, 0]"] ;
621 -> 761 ;
762 [label="gini = 0.0\nsamples = 30\nvalue = [30, 0, 0, 0, 0, 0, 0, 0, 0, 0]"] ;
761 -> 762 ;
763 [label="gini = 0.0\nsamples = 3\nvalue = [0, 0, 0, 0, 0, 0, 0, 0, 3, 0]"] ;
761 -> 763 ;
764 [label="X[20] <= 25.736\ngini = 0.061\nsamples = 540\nvalue = [523, 0, 0, 0, 0, 4, 0, 0, 13, 0]"] ;
584 -> 764 ;
765 [label="X[18] <= -0.786\ngini = 0.016\nsamples = 495\nvalue = [491, 0, 0, 0, 0, 4, 0, 0, 0, 0]"] ;
764 -> 765 ;
766 [label="gini = 0.0\nsamples = 491\nvalue = [491, 0, 0, 0, 0, 0, 0, 0, 0, 0]"] ;
765 -> 766 ;
767 [label="gini = 0.0\nsamples = 4\nvalue = [0, 0, 0, 0, 0, 4, 0, 0, 0, 0]"] ;
765 -> 767 ;
768 [label="X[9] <= -0.789\ngini = 0.411\nsamples = 45\nvalue = [32, 0, 0, 0, 0, 0, 0, 0, 13, 0]"] ;
764 -> 768 ;
769 [label="gini = 0.0\nsamples = 32\nvalue = [32, 0, 0, 0, 0, 0, 0, 0, 0, 0]"] ;
768 -> 769 ;
770 [label="gini = 0.0\nsamples = 13\nvalue = [0, 0, 0, 0, 0, 0, 0, 0, 13, 0]"] ;
768 -> 770 ;
771 [label="X[9] <= -1.005\ngini = 0.267\nsamples = 4072\nvalue = [3464, 18, 0, 0, 153, 361, 13, 27, 36, 0]"] ;
583 -> 771 ;
772 [label="X[19] <= 0.293\ngini = 0.434\nsamples = 361\nvalue = [115, 0, 0, 0, 0, 246, 0, 0, 0, 0]"] ;
771 -> 772 ;
773 [label="X[9] <= -1.053\ngini = 0.322\nsamples = 99\nvalue = [79, 0, 0, 0, 0, 20, 0, 0, 0, 0]"] ;
772 -> 773 ;
774 [label="X[1] <= 3.01\ngini = 0.055\nsamples = 71\nvalue = [69, 0, 0, 0, 0, 2, 0, 0, 0, 0]"] ;
773 -> 774 ;
775 [label="X[8] <= -0.519\ngini = 0.028\nsamples = 70\nvalue = [69, 0, 0, 0, 0, 1, 0, 0, 0, 0]"] ;
774 -> 775 ;
776 [label="gini = 0.0\nsamples = 1\nvalue = [0, 0, 0, 0, 0, 1, 0, 0, 0, 0]"] ;
775 -> 776 ;
777 [label="gini = 0.0\nsamples = 69\nvalue = [69, 0, 0, 0, 0, 0, 0, 0, 0, 0]"] ;
775 -> 777 ;
778 [label="gini = 0.0\nsamples = 1\nvalue = [0, 0, 0, 0, 0, 1, 0, 0, 0, 0]"] ;
774 -> 778 ;
779 [label="X[18] <= -0.268\ngini = 0.459\nsamples = 28\nvalue = [10, 0, 0, 0, 0, 18, 0, 0, 0, 0]"] ;
773 -> 779 ;
780 [label="X[14] <= -2.091\ngini = 0.1\nsamples = 19\nvalue = [1, 0, 0, 0, 0, 18, 0, 0, 0, 0]"] ;
779 -> 780 ;
781 [label="gini = 0.0\nsamples = 18\nvalue = [0, 0, 0, 0, 0, 18, 0, 0, 0, 0]"] ;
780 -> 781 ;
782 [label="gini = 0.0\nsamples = 1\nvalue = [1, 0, 0, 0, 0, 0, 0, 0, 0, 0]"] ;
780 -> 782 ;
783 [label="gini = 0.0\nsamples = 9\nvalue = [9, 0, 0, 0, 0, 0, 0, 0, 0, 0]"] ;
779 -> 783 ;
784 [label="X[5] <= -0.949\ngini = 0.237\nsamples = 262\nvalue = [36, 0, 0, 0, 0, 226, 0, 0, 0, 0]"] ;
772 -> 784 ;
785 [label="X[14] <= -3.625\ngini = 0.287\nsamples = 23\nvalue = [19, 0, 0, 0, 0, 4, 0, 0, 0, 0]"] ;
784 -> 785 ;
786 [label="gini = 0.0\nsamples = 4\nvalue = [0, 0, 0, 0, 0, 4, 0, 0, 0, 0]"] ;
785 -> 786 ;
787 [label="gini = 0.0\nsamples = 19\nvalue = [19, 0, 0, 0, 0, 0, 0, 0, 0, 0]"] ;
785 -> 787 ;
788 [label="X[18] <= -0.293\ngini = 0.132\nsamples = 239\nvalue = [17, 0, 0, 0, 0, 222, 0, 0, 0, 0]"] ;
784 -> 788 ;
789 [label="X[4] <= -0.389\ngini = 0.082\nsamples = 232\nvalue = [10, 0, 0, 0, 0, 222, 0, 0, 0, 0]"] ;
788 -> 789 ;
790 [label="gini = 0.0\nsamples = 3\nvalue = [3, 0, 0, 0, 0, 0, 0, 0, 0, 0]"] ;
789 -> 790 ;
791 [label="X[11] <= 95.61\ngini = 0.059\nsamples = 229\nvalue = [7, 0, 0, 0, 0, 222, 0, 0, 0, 0]"] ;
789 -> 791 ;
792 [label="X[3] <= 2.744\ngini = 0.035\nsamples = 226\nvalue = [4, 0, 0, 0, 0, 222, 0, 0, 0, 0]"] ;
791 -> 792 ;
793 [label="X[12] <= -53.908\ngini = 0.026\nsamples = 225\nvalue = [3, 0, 0, 0, 0, 222, 0, 0, 0, 0]"] ;
792 -> 793 ;
794 [label="gini = 0.0\nsamples = 1\nvalue = [1, 0, 0, 0, 0, 0, 0, 0, 0, 0]"] ;
793 -> 794 ;
795 [label="X[19] <= 0.328\ngini = 0.018\nsamples = 224\nvalue = [2, 0, 0, 0, 0, 222, 0, 0, 0, 0]"] ;
793 -> 795 ;
796 [label="X[22] <= -19.362\ngini = 0.375\nsamples = 8\nvalue = [2, 0, 0, 0, 0, 6, 0, 0, 0, 0]"] ;
795 -> 796 ;
797 [label="gini = 0.0\nsamples = 2\nvalue = [2, 0, 0, 0, 0, 0, 0, 0, 0, 0]"] ;
796 -> 797 ;
798 [label="gini = 0.0\nsamples = 6\nvalue = [0, 0, 0, 0, 0, 6, 0, 0, 0, 0]"] ;
796 -> 798 ;
799 [label="gini = 0.0\nsamples = 216\nvalue = [0, 0, 0, 0, 0, 216, 0, 0, 0, 0]"] ;
795 -> 799 ;
800 [label="gini = 0.0\nsamples = 1\nvalue = [1, 0, 0, 0, 0, 0, 0, 0, 0, 0]"] ;
792 -> 800 ;
801 [label="gini = 0.0\nsamples = 3\nvalue = [3, 0, 0, 0, 0, 0, 0, 0, 0, 0]"] ;
791 -> 801 ;
802 [label="gini = 0.0\nsamples = 7\nvalue = [7, 0, 0, 0, 0, 0, 0, 0, 0, 0]"] ;
788 -> 802 ;
803 [label="X[19] <= 0.796\ngini = 0.183\nsamples = 3711\nvalue = [3349, 18, 0, 0, 153, 115, 13, 27, 36, 0]"] ;
771 -> 803 ;
804 [label="X[6] <= -6.229\ngini = 0.115\nsamples = 3451\nvalue = [3244, 13, 0, 0, 8, 110, 13, 27, 36, 0]"] ;
803 -> 804 ;
805 [label="X[14] <= -15.912\ngini = 0.092\nsamples = 3300\nvalue = [3144, 13, 0, 0, 3, 64, 13, 27, 36, 0]"] ;
804 -> 805 ;
806 [label="X[21] <= -65.943\ngini = 0.298\nsamples = 11\nvalue = [2, 9, 0, 0, 0, 0, 0, 0, 0, 0]"] ;
805 -> 806 ;
807 [label="gini = 0.0\nsamples = 2\nvalue = [2, 0, 0, 0, 0, 0, 0, 0, 0, 0]"] ;
806 -> 807 ;
808 [label="gini = 0.0\nsamples = 9\nvalue = [0, 9, 0, 0, 0, 0, 0, 0, 0, 0]"] ;
806 -> 808 ;
809 [label="X[8] <= -0.506\ngini = 0.087\nsamples = 3289\nvalue = [3142, 4, 0, 0, 3, 64, 13, 27, 36, 0]"] ;
805 -> 809 ;
810 [label="X[7] <= 1.465\ngini = 0.408\nsamples = 162\nvalue = [121, 0, 0, 0, 0, 1, 13, 27, 0, 0]"] ;
809 -> 810 ;
811 [label="X[7] <= 0.977\ngini = 0.213\nsamples = 117\nvalue = [103, 0, 0, 0, 0, 1, 13, 0, 0, 0]"] ;
810 -> 811 ;
812 [label="X[6] <= -6.877\ngini = 0.043\nsamples = 92\nvalue = [90, 0, 0, 0, 0, 1, 1, 0, 0, 0]"] ;
811 -> 812 ;
813 [label="X[7] <= 0.816\ngini = 0.022\nsamples = 91\nvalue = [90, 0, 0, 0, 0, 0, 1, 0, 0, 0]"] ;
812 -> 813 ;
814 [label="gini = 0.0\nsamples = 85\nvalue = [85, 0, 0, 0, 0, 0, 0, 0, 0, 0]"] ;
813 -> 814 ;
815 [label="X[4] <= 0.113\ngini = 0.278\nsamples = 6\nvalue = [5, 0, 0, 0, 0, 0, 1, 0, 0, 0]"] ;
813 -> 815 ;
816 [label="gini = 0.0\nsamples = 5\nvalue = [5, 0, 0, 0, 0, 0, 0, 0, 0, 0]"] ;
815 -> 816 ;
817 [label="gini = 0.0\nsamples = 1\nvalue = [0, 0, 0, 0, 0, 0, 1, 0, 0, 0]"] ;
815 -> 817 ;
818 [label="gini = 0.0\nsamples = 1\nvalue = [0, 0, 0, 0, 0, 1, 0, 0, 0, 0]"] ;
812 -> 818 ;
819 [label="X[14] <= -2.105\ngini = 0.499\nsamples = 25\nvalue = [13, 0, 0, 0, 0, 0, 12, 0, 0, 0]"] ;
811 -> 819 ;
820 [label="gini = 0.0\nsamples = 12\nvalue = [12, 0, 0, 0, 0, 0, 0, 0, 0, 0]"] ;
819 -> 820 ;
821 [label="X[0] <= -9.88\ngini = 0.142\nsamples = 13\nvalue = [1, 0, 0, 0, 0, 0, 12, 0, 0, 0]"] ;
819 -> 821 ;
822 [label="gini = 0.0\nsamples = 1\nvalue = [1, 0, 0, 0, 0, 0, 0, 0, 0, 0]"] ;
821 -> 822 ;
823 [label="gini = 0.0\nsamples = 12\nvalue = [0, 0, 0, 0, 0, 0, 12, 0, 0, 0]"] ;
821 -> 823 ;
824 [label="X[2] <= -0.54\ngini = 0.48\nsamples = 45\nvalue = [18, 0, 0, 0, 0, 0, 0, 27, 0, 0]"] ;
810 -> 824 ;
825 [label="X[15] <= -7.598\ngini = 0.117\nsamples = 16\nvalue = [15, 0, 0, 0, 0, 0, 0, 1, 0, 0]"] ;
824 -> 825 ;
826 [label="gini = 0.0\nsamples = 15\nvalue = [15, 0, 0, 0, 0, 0, 0, 0, 0, 0]"] ;
825 -> 826 ;
827 [label="gini = 0.0\nsamples = 1\nvalue = [0, 0, 0, 0, 0, 0, 0, 1, 0, 0]"] ;
825 -> 827 ;
828 [label="X[13] <= -1.272\ngini = 0.185\nsamples = 29\nvalue = [3, 0, 0, 0, 0, 0, 0, 26, 0, 0]"] ;
824 -> 828 ;
829 [label="gini = 0.0\nsamples = 3\nvalue = [3, 0, 0, 0, 0, 0, 0, 0, 0, 0]"] ;
828 -> 829 ;
830 [label="gini = 0.0\nsamples = 26\nvalue = [0, 0, 0, 0, 0, 0, 0, 26, 0, 0]"] ;
828 -> 830 ;
831 [label="X[19] <= -0.266\ngini = 0.066\nsamples = 3127\nvalue = [3021, 4, 0, 0, 3, 63, 0, 0, 36, 0]"] ;
809 -> 831 ;
832 [label="X[7] <= -0.239\ngini = 0.386\nsamples = 69\nvalue = [51, 0, 0, 0, 0, 0, 0, 0, 18, 0]"] ;
831 -> 832 ;
833 [label="gini = 0.0\nsamples = 43\nvalue = [43, 0, 0, 0, 0, 0, 0, 0, 0, 0]"] ;
832 -> 833 ;
834 [label="X[2] <= 0.025\ngini = 0.426\nsamples = 26\nvalue = [8, 0, 0, 0, 0, 0, 0, 0, 18, 0]"] ;
832 -> 834 ;
835 [label="X[17] <= -0.39\ngini = 0.1\nsamples = 19\nvalue = [1, 0, 0, 0, 0, 0, 0, 0, 18, 0]"] ;
834 -> 835 ;
836 [label="gini = 0.0\nsamples = 1\nvalue = [1, 0, 0, 0, 0, 0, 0, 0, 0, 0]"] ;
835 -> 836 ;
837 [label="gini = 0.0\nsamples = 18\nvalue = [0, 0, 0, 0, 0, 0, 0, 0, 18, 0]"] ;
835 -> 837 ;
838 [label="gini = 0.0\nsamples = 7\nvalue = [7, 0, 0, 0, 0, 0, 0, 0, 0, 0]"] ;
834 -> 838 ;
839 [label="X[10] <= -0.827\ngini = 0.056\nsamples = 3058\nvalue = [2970, 4, 0, 0, 3, 63, 0, 0, 18, 0]"] ;
831 -> 839 ;
840 [label="X[8] <= -0.3\ngini = 0.452\nsamples = 29\nvalue = [19, 0, 0, 0, 0, 10, 0, 0, 0, 0]"] ;
839 -> 840 ;
841 [label="gini = 0.0\nsamples = 10\nvalue = [0, 0, 0, 0, 0, 10, 0, 0, 0, 0]"] ;
840 -> 841 ;
842 [label="gini = 0.0\nsamples = 19\nvalue = [19, 0, 0, 0, 0, 0, 0, 0, 0, 0]"] ;
840 -> 842 ;
843 [label="X[18] <= -0.633\ngini = 0.05\nsamples = 3029\nvalue = [2951, 4, 0, 0, 3, 53, 0, 0, 18, 0]"] ;
839 -> 843 ;
844 [label="X[20] <= -129.58\ngini = 0.033\nsamples = 2730\nvalue = [2685, 4, 0, 0, 3, 20, 0, 0, 18, 0]"] ;
843 -> 844 ;
845 [label="gini = 0.0\nsamples = 2\nvalue = [0, 2, 0, 0, 0, 0, 0, 0, 0, 0]"] ;
844 -> 845 ;
846 [label="X[19] <= -0.171\ngini = 0.031\nsamples = 2728\nvalue = [2685, 2, 0, 0, 3, 20, 0, 0, 18, 0]"] ;
844 -> 846 ;
847 [label="X[11] <= 11.24\ngini = 0.156\nsamples = 224\nvalue = [205, 0, 0, 0, 0, 1, 0, 0, 18, 0]"] ;
846 -> 847 ;
848 [label="X[7] <= 1.672\ngini = 0.031\nsamples = 191\nvalue = [188, 0, 0, 0, 0, 0, 0, 0, 3, 0]"] ;
847 -> 848 ;
849 [label="gini = 0.0\nsamples = 172\nvalue = [172, 0, 0, 0, 0, 0, 0, 0, 0, 0]"] ;
848 -> 849 ;
850 [label="X[10] <= -0.424\ngini = 0.266\nsamples = 19\nvalue = [16, 0, 0, 0, 0, 0, 0, 0, 3, 0]"] ;
848 -> 850 ;
851 [label="gini = 0.0\nsamples = 3\nvalue = [0, 0, 0, 0, 0, 0, 0, 0, 3, 0]"] ;
850 -> 851 ;
852 [label="gini = 0.0\nsamples = 16\nvalue = [16, 0, 0, 0, 0, 0, 0, 0, 0, 0]"] ;
850 -> 852 ;
853 [label="X[19] <= -0.212\ngini = 0.527\nsamples = 33\nvalue = [17, 0, 0, 0, 0, 1, 0, 0, 15, 0]"] ;
847 -> 853 ;
854 [label="X[6] <= -9.159\ngini = 0.105\nsamples = 18\nvalue = [17, 0, 0, 0, 0, 0, 0, 0, 1, 0]"] ;
853 -> 854 ;
855 [label="gini = 0.0\nsamples = 17\nvalue = [17, 0, 0, 0, 0, 0, 0, 0, 0, 0]"] ;
854 -> 855 ;
856 [label="gini = 0.0\nsamples = 1\nvalue = [0, 0, 0, 0, 0, 0, 0, 0, 1, 0]"] ;
854 -> 856 ;
857 [label="X[6] <= -8.936\ngini = 0.124\nsamples = 15\nvalue = [0, 0, 0, 0, 0, 1, 0, 0, 14, 0]"] ;
853 -> 857 ;
858 [label="gini = 0.0\nsamples = 14\nvalue = [0, 0, 0, 0, 0, 0, 0, 0, 14, 0]"] ;
857 -> 858 ;
859 [label="gini = 0.0\nsamples = 1\nvalue = [0, 0, 0, 0, 0, 1, 0, 0, 0, 0]"] ;
857 -> 859 ;
860 [label="X[8] <= 0.571\ngini = 0.019\nsamples = 2504\nvalue = [2480, 2, 0, 0, 3, 19, 0, 0, 0, 0]"] ;
846 -> 860 ;
861 [label="X[22] <= 23.117\ngini = 0.015\nsamples = 2485\nvalue = [2466, 0, 0, 0, 3, 16, 0, 0, 0, 0]"] ;
860 -> 861 ;
862 [label="X[15] <= -14.926\ngini = 0.005\nsamples = 2203\nvalue = [2198, 0, 0, 0, 3, 2, 0, 0, 0, 0]"] ;
861 -> 862 ;
863 [label="X[19] <= 0.731\ngini = 0.266\nsamples = 19\nvalue = [16, 0, 0, 0, 3, 0, 0, 0, 0, 0]"] ;
862 -> 863 ;
864 [label="gini = 0.0\nsamples = 16\nvalue = [16, 0, 0, 0, 0, 0, 0, 0, 0, 0]"] ;
863 -> 864 ;
865 [label="gini = 0.0\nsamples = 3\nvalue = [0, 0, 0, 0, 3, 0, 0, 0, 0, 0]"] ;
863 -> 865 ;
866 [label="X[0] <= -14.916\ngini = 0.002\nsamples = 2184\nvalue = [2182, 0, 0, 0, 0, 2, 0, 0, 0, 0]"] ;
862 -> 866 ;
867 [label="X[21] <= -19.757\ngini = 0.245\nsamples = 7\nvalue = [6, 0, 0, 0, 0, 1, 0, 0, 0, 0]"] ;
866 -> 867 ;
868 [label="gini = 0.0\nsamples = 1\nvalue = [0, 0, 0, 0, 0, 1, 0, 0, 0, 0]"] ;
867 -> 868 ;
869 [label="gini = 0.0\nsamples = 6\nvalue = [6, 0, 0, 0, 0, 0, 0, 0, 0, 0]"] ;
867 -> 869 ;
870 [label="X[22] <= 19.603\ngini = 0.001\nsamples = 2177\nvalue = [2176, 0, 0, 0, 0, 1, 0, 0, 0, 0]"] ;
866 -> 870 ;
871 [label="gini = 0.0\nsamples = 2126\nvalue = [2126, 0, 0, 0, 0, 0, 0, 0, 0, 0]"] ;
870 -> 871 ;
872 [label="X[22] <= 19.636\ngini = 0.038\nsamples = 51\nvalue = [50, 0, 0, 0, 0, 1, 0, 0, 0, 0]"] ;
870 -> 872 ;
873 [label="gini = 0.0\nsamples = 1\nvalue = [0, 0, 0, 0, 0, 1, 0, 0, 0, 0]"] ;
872 -> 873 ;
874 [label="gini = 0.0\nsamples = 50\nvalue = [50, 0, 0, 0, 0, 0, 0, 0, 0, 0]"] ;
872 -> 874 ;
875 [label="X[0] <= -9.072\ngini = 0.094\nsamples = 282\nvalue = [268, 0, 0, 0, 0, 14, 0, 0, 0, 0]"] ;
861 -> 875 ;
876 [label="X[15] <= -12.51\ngini = 0.017\nsamples = 231\nvalue = [229, 0, 0, 0, 0, 2, 0, 0, 0, 0]"] ;
875 -> 876 ;
877 [label="X[5] <= 1.029\ngini = 0.5\nsamples = 4\nvalue = [2, 0, 0, 0, 0, 2, 0, 0, 0, 0]"] ;
876 -> 877 ;
878 [label="gini = 0.0\nsamples = 2\nvalue = [2, 0, 0, 0, 0, 0, 0, 0, 0, 0]"] ;
877 -> 878 ;
879 [label="gini = 0.0\nsamples = 2\nvalue = [0, 0, 0, 0, 0, 2, 0, 0, 0, 0]"] ;
877 -> 879 ;
880 [label="gini = 0.0\nsamples = 227\nvalue = [227, 0, 0, 0, 0, 0, 0, 0, 0, 0]"] ;
876 -> 880 ;
881 [label="X[11] <= -66.031\ngini = 0.36\nsamples = 51\nvalue = [39, 0, 0, 0, 0, 12, 0, 0, 0, 0]"] ;
875 -> 881 ;
882 [label="gini = 0.0\nsamples = 8\nvalue = [0, 0, 0, 0, 0, 8, 0, 0, 0, 0]"] ;
881 -> 882 ;
883 [label="X[0] <= -9.036\ngini = 0.169\nsamples = 43\nvalue = [39, 0, 0, 0, 0, 4, 0, 0, 0, 0]"] ;
881 -> 883 ;
884 [label="gini = 0.0\nsamples = 2\nvalue = [0, 0, 0, 0, 0, 2, 0, 0, 0, 0]"] ;
883 -> 884 ;
885 [label="X[6] <= -11.729\ngini = 0.093\nsamples = 41\nvalue = [39, 0, 0, 0, 0, 2, 0, 0, 0, 0]"] ;
883 -> 885 ;
886 [label="X[20] <= 3.634\ngini = 0.48\nsamples = 5\nvalue = [3, 0, 0, 0, 0, 2, 0, 0, 0, 0]"] ;
885 -> 886 ;
887 [label="gini = 0.0\nsamples = 2\nvalue = [0, 0, 0, 0, 0, 2, 0, 0, 0, 0]"] ;
886 -> 887 ;
888 [label="gini = 0.0\nsamples = 3\nvalue = [3, 0, 0, 0, 0, 0, 0, 0, 0, 0]"] ;
886 -> 888 ;
889 [label="gini = 0.0\nsamples = 36\nvalue = [36, 0, 0, 0, 0, 0, 0, 0, 0, 0]"] ;
885 -> 889 ;
890 [label="X[19] <= 0.449\ngini = 0.421\nsamples = 19\nvalue = [14, 2, 0, 0, 0, 3, 0, 0, 0, 0]"] ;
860 -> 890 ;
891 [label="gini = 0.0\nsamples = 14\nvalue = [14, 0, 0, 0, 0, 0, 0, 0, 0, 0]"] ;
890 -> 891 ;
892 [label="X[1] <= 0.006\ngini = 0.48\nsamples = 5\nvalue = [0, 2, 0, 0, 0, 3, 0, 0, 0, 0]"] ;
890 -> 892 ;
893 [label="gini = 0.0\nsamples = 2\nvalue = [0, 2, 0, 0, 0, 0, 0, 0, 0, 0]"] ;
892 -> 893 ;
894 [label="gini = 0.0\nsamples = 3\nvalue = [0, 0, 0, 0, 0, 3, 0, 0, 0, 0]"] ;
892 -> 894 ;
895 [label="X[8] <= -0.436\ngini = 0.196\nsamples = 299\nvalue = [266, 0, 0, 0, 0, 33, 0, 0, 0, 0]"] ;
843 -> 895 ;
896 [label="X[14] <= -5.122\ngini = 0.487\nsamples = 55\nvalue = [32, 0, 0, 0, 0, 23, 0, 0, 0, 0]"] ;
895 -> 896 ;
897 [label="gini = 0.0\nsamples = 14\nvalue = [14, 0, 0, 0, 0, 0, 0, 0, 0, 0]"] ;
896 -> 897 ;
898 [label="X[14] <= -2.875\ngini = 0.493\nsamples = 41\nvalue = [18, 0, 0, 0, 0, 23, 0, 0, 0, 0]"] ;
896 -> 898 ;
899 [label="X[21] <= 42.66\ngini = 0.375\nsamples = 28\nvalue = [7, 0, 0, 0, 0, 21, 0, 0, 0, 0]"] ;
898 -> 899 ;
900 [label="X[7] <= -2.469\ngini = 0.219\nsamples = 24\nvalue = [3, 0, 0, 0, 0, 21, 0, 0, 0, 0]"] ;
899 -> 900 ;
901 [label="gini = 0.0\nsamples = 20\nvalue = [0, 0, 0, 0, 0, 20, 0, 0, 0, 0]"] ;
900 -> 901 ;
902 [label="X[5] <= -1.82\ngini = 0.375\nsamples = 4\nvalue = [3, 0, 0, 0, 0, 1, 0, 0, 0, 0]"] ;
900 -> 902 ;
903 [label="gini = 0.0\nsamples = 1\nvalue = [0, 0, 0, 0, 0, 1, 0, 0, 0, 0]"] ;
902 -> 903 ;
904 [label="gini = 0.0\nsamples = 3\nvalue = [3, 0, 0, 0, 0, 0, 0, 0, 0, 0]"] ;
902 -> 904 ;
905 [label="gini = 0.0\nsamples = 4\nvalue = [4, 0, 0, 0, 0, 0, 0, 0, 0, 0]"] ;
899 -> 905 ;
906 [label="X[18] <= -0.467\ngini = 0.26\nsamples = 13\nvalue = [11, 0, 0, 0, 0, 2, 0, 0, 0, 0]"] ;
898 -> 906 ;
907 [label="gini = 0.0\nsamples = 2\nvalue = [0, 0, 0, 0, 0, 2, 0, 0, 0, 0]"] ;
906 -> 907 ;
908 [label="gini = 0.0\nsamples = 11\nvalue = [11, 0, 0, 0, 0, 0, 0, 0, 0, 0]"] ;
906 -> 908 ;
909 [label="X[19] <= 0.791\ngini = 0.079\nsamples = 244\nvalue = [234, 0, 0, 0, 0, 10, 0, 0, 0, 0]"] ;
895 -> 909 ;
910 [label="X[1] <= 2.83\ngini = 0.056\nsamples = 241\nvalue = [234, 0, 0, 0, 0, 7, 0, 0, 0, 0]"] ;
909 -> 910 ;
911 [label="X[15] <= -12.024\ngini = 0.025\nsamples = 235\nvalue = [232, 0, 0, 0, 0, 3, 0, 0, 0, 0]"] ;
910 -> 911 ;
912 [label="X[0] <= -10.392\ngini = 0.408\nsamples = 7\nvalue = [5, 0, 0, 0, 0, 2, 0, 0, 0, 0]"] ;
911 -> 912 ;
913 [label="gini = 0.0\nsamples = 2\nvalue = [0, 0, 0, 0, 0, 2, 0, 0, 0, 0]"] ;
912 -> 913 ;
914 [label="gini = 0.0\nsamples = 5\nvalue = [5, 0, 0, 0, 0, 0, 0, 0, 0, 0]"] ;
912 -> 914 ;
915 [label="X[19] <= 0.754\ngini = 0.009\nsamples = 228\nvalue = [227, 0, 0, 0, 0, 1, 0, 0, 0, 0]"] ;
911 -> 915 ;
916 [label="gini = 0.0\nsamples = 226\nvalue = [226, 0, 0, 0, 0, 0, 0, 0, 0, 0]"] ;
915 -> 916 ;
917 [label="X[13] <= 5.719\ngini = 0.5\nsamples = 2\nvalue = [1, 0, 0, 0, 0, 1, 0, 0, 0, 0]"] ;
915 -> 917 ;
918 [label="gini = 0.0\nsamples = 1\nvalue = [0, 0, 0, 0, 0, 1, 0, 0, 0, 0]"] ;
917 -> 918 ;
919 [label="gini = 0.0\nsamples = 1\nvalue = [1, 0, 0, 0, 0, 0, 0, 0, 0, 0]"] ;
917 -> 919 ;
920 [label="X[14] <= -4.306\ngini = 0.444\nsamples = 6\nvalue = [2, 0, 0, 0, 0, 4, 0, 0, 0, 0]"] ;
910 -> 920 ;
921 [label="gini = 0.0\nsamples = 4\nvalue = [0, 0, 0, 0, 0, 4, 0, 0, 0, 0]"] ;
920 -> 921 ;
922 [label="gini = 0.0\nsamples = 2\nvalue = [2, 0, 0, 0, 0, 0, 0, 0, 0, 0]"] ;
920 -> 922 ;
923 [label="gini = 0.0\nsamples = 3\nvalue = [0, 0, 0, 0, 0, 3, 0, 0, 0, 0]"] ;
909 -> 923 ;
924 [label="X[1] <= 0.545\ngini = 0.468\nsamples = 151\nvalue = [100, 0, 0, 0, 5, 46, 0, 0, 0, 0]"] ;
804 -> 924 ;
925 [label="X[19] <= 0.746\ngini = 0.143\nsamples = 92\nvalue = [85, 0, 0, 0, 5, 2, 0, 0, 0, 0]"] ;
924 -> 925 ;
926 [label="X[8] <= 0.587\ngini = 0.047\nsamples = 83\nvalue = [81, 0, 0, 0, 0, 2, 0, 0, 0, 0]"] ;
925 -> 926 ;
927 [label="gini = 0.0\nsamples = 81\nvalue = [81, 0, 0, 0, 0, 0, 0, 0, 0, 0]"] ;
926 -> 927 ;
928 [label="gini = 0.0\nsamples = 2\nvalue = [0, 0, 0, 0, 0, 2, 0, 0, 0, 0]"] ;
926 -> 928 ;
929 [label="X[8] <= 0.38\ngini = 0.494\nsamples = 9\nvalue = [4, 0, 0, 0, 5, 0, 0, 0, 0, 0]"] ;
925 -> 929 ;
930 [label="gini = 0.0\nsamples = 5\nvalue = [0, 0, 0, 0, 5, 0, 0, 0, 0, 0]"] ;
929 -> 930 ;
931 [label="gini = 0.0\nsamples = 4\nvalue = [4, 0, 0, 0, 0, 0, 0, 0, 0, 0]"] ;
929 -> 931 ;
932 [label="X[6] <= -2.822\ngini = 0.379\nsamples = 59\nvalue = [15, 0, 0, 0, 0, 44, 0, 0, 0, 0]"] ;
924 -> 932 ;
933 [label="X[16] <= 1.896\ngini = 0.26\nsamples = 52\nvalue = [8, 0, 0, 0, 0, 44, 0, 0, 0, 0]"] ;
932 -> 933 ;
934 [label="X[7] <= -7.487\ngini = 0.05\nsamples = 39\nvalue = [1, 0, 0, 0, 0, 38, 0, 0, 0, 0]"] ;
933 -> 934 ;
935 [label="gini = 0.0\nsamples = 1\nvalue = [1, 0, 0, 0, 0, 0, 0, 0, 0, 0]"] ;
934 -> 935 ;
936 [label="gini = 0.0\nsamples = 38\nvalue = [0, 0, 0, 0, 0, 38, 0, 0, 0, 0]"] ;
934 -> 936 ;
937 [label="X[20] <= -18.418\ngini = 0.497\nsamples = 13\nvalue = [7, 0, 0, 0, 0, 6, 0, 0, 0, 0]"] ;
933 -> 937 ;
938 [label="gini = 0.0\nsamples = 6\nvalue = [0, 0, 0, 0, 0, 6, 0, 0, 0, 0]"] ;
937 -> 938 ;
939 [label="gini = 0.0\nsamples = 7\nvalue = [7, 0, 0, 0, 0, 0, 0, 0, 0, 0]"] ;
937 -> 939 ;
940 [label="gini = 0.0\nsamples = 7\nvalue = [7, 0, 0, 0, 0, 0, 0, 0, 0, 0]"] ;
932 -> 940 ;
941 [label="X[10] <= -0.118\ngini = 0.525\nsamples = 260\nvalue = [105, 5, 0, 0, 145, 5, 0, 0, 0, 0]"] ;
803 -> 941 ;
942 [label="X[16] <= 2.117\ngini = 0.308\nsamples = 171\nvalue = [30, 2, 0, 0, 139, 0, 0, 0, 0, 0]"] ;
941 -> 942 ;
943 [label="X[15] <= -11.492\ngini = 0.32\nsamples = 16\nvalue = [13, 2, 0, 0, 1, 0, 0, 0, 0, 0]"] ;
942 -> 943 ;
944 [label="X[19] <= 0.815\ngini = 0.444\nsamples = 3\nvalue = [0, 2, 0, 0, 1, 0, 0, 0, 0, 0]"] ;
943 -> 944 ;
945 [label="gini = 0.0\nsamples = 2\nvalue = [0, 2, 0, 0, 0, 0, 0, 0, 0, 0]"] ;
944 -> 945 ;
946 [label="gini = 0.0\nsamples = 1\nvalue = [0, 0, 0, 0, 1, 0, 0, 0, 0, 0]"] ;
944 -> 946 ;
947 [label="gini = 0.0\nsamples = 13\nvalue = [13, 0, 0, 0, 0, 0, 0, 0, 0, 0]"] ;
943 -> 947 ;
948 [label="X[17] <= -0.383\ngini = 0.195\nsamples = 155\nvalue = [17, 0, 0, 0, 138, 0, 0, 0, 0, 0]"] ;
942 -> 948 ;
949 [label="X[22] <= -10.447\ngini = 0.278\nsamples = 6\nvalue = [5, 0, 0, 0, 1, 0, 0, 0, 0, 0]"] ;
948 -> 949 ;
950 [label="gini = 0.0\nsamples = 1\nvalue = [0, 0, 0, 0, 1, 0, 0, 0, 0, 0]"] ;
949 -> 950 ;
951 [label="gini = 0.0\nsamples = 5\nvalue = [5, 0, 0, 0, 0, 0, 0, 0, 0, 0]"] ;
949 -> 951 ;
952 [label="X[17] <= -0.227\ngini = 0.148\nsamples = 149\nvalue = [12, 0, 0, 0, 137, 0, 0, 0, 0, 0]"] ;
948 -> 952 ;
953 [label="X[21] <= 39.145\ngini = 0.104\nsamples = 145\nvalue = [8, 0, 0, 0, 137, 0, 0, 0, 0, 0]"] ;
952 -> 953 ;
954 [label="X[22] <= -57.366\ngini = 0.092\nsamples = 144\nvalue = [7, 0, 0, 0, 137, 0, 0, 0, 0, 0]"] ;
953 -> 954 ;
955 [label="gini = 0.0\nsamples = 1\nvalue = [1, 0, 0, 0, 0, 0, 0, 0, 0, 0]"] ;
954 -> 955 ;
956 [label="X[10] <= -0.581\ngini = 0.08\nsamples = 143\nvalue = [6, 0, 0, 0, 137, 0, 0, 0, 0, 0]"] ;
954 -> 956 ;
957 [label="gini = 0.0\nsamples = 1\nvalue = [1, 0, 0, 0, 0, 0, 0, 0, 0, 0]"] ;
956 -> 957 ;
958 [label="X[19] <= 0.805\ngini = 0.068\nsamples = 142\nvalue = [5, 0, 0, 0, 137, 0, 0, 0, 0, 0]"] ;
956 -> 958 ;
959 [label="X[19] <= 0.803\ngini = 0.397\nsamples = 11\nvalue = [3, 0, 0, 0, 8, 0, 0, 0, 0, 0]"] ;
958 -> 959 ;
960 [label="gini = 0.0\nsamples = 7\nvalue = [0, 0, 0, 0, 7, 0, 0, 0, 0, 0]"] ;
959 -> 960 ;
